tree
version=v3
num_class=1
num_tree_per_iteration=1
label_index=0
max_feature_idx=447
objective=quantile
feature_names=NUM_PRIMARY_ENDPOINTS NUM_SECONDARY_ENDPOINTS NUM_INC_CRITERIA NUM_EXC_CRITERIA TARGET_NUM_COUNTRIES PAT_CRIT_MIN_AGE PAT_CRIT_MAX_AGE NUM_PLANNED_EXAMINATION_PROCEDURES NUM_PLANNED_DIAGNOSTIC_PROCEDURES NUM_PLANNED_NON_CORE_PROCEDURES NUM_PLANNED_DRUG_TREATMENT_PROCEDURES NUM_PLANNED_CORE_PROCEDURES NUM_UNIQUE_PLANNED_VISITS NUM_PLANNED_SOA_PROCEDURES PLANNED_ENROLLMENT STUDY_KEYWORDS~active_comparator STUDY_KEYWORDS~cross_over STUDY_KEYWORDS~double_blindblinded STUDY_KEYWORDS~efficacy STUDY_KEYWORDS~immunogenicity STUDY_KEYWORDS~multiple_arm STUDY_KEYWORDS~non_interventional STUDY_KEYWORDS~observational STUDY_KEYWORDS~open_label STUDY_KEYWORDS~pharmacodynamics STUDY_KEYWORDS~pharmacokinetics STUDY_KEYWORDS~placebo_control STUDY_KEYWORDS~randomized STUDY_KEYWORDS~safety STUDY_KEYWORDS~single_arm THERAPEUTIC_CLASSES~_Anti_inflammatory THERAPEUTIC_CLASSES~_Anticancer THERAPEUTIC_CLASSES~_Miscellaneous THERAPEUTIC_CLASSES~_alkylating THERAPEUTIC_CLASSES~_anti_HIV THERAPEUTIC_CLASSES~_antimetabolite THERAPEUTIC_CLASSES~_chimaeric THERAPEUTIC_CLASSES~_conjugate THERAPEUTIC_CLASSES~_humanized THERAPEUTIC_CLASSES~_immunological THERAPEUTIC_CLASSES~_other THERAPEUTIC_CLASSES~_pegylated THERAPEUTIC_CLASSES~_unspecified THERAPEUTIC_CLASSES~Anti_inflammatory THERAPEUTIC_CLASSES~Antiarthritic THERAPEUTIC_CLASSES~Anticancer THERAPEUTIC_CLASSES~Antiparkinsonian THERAPEUTIC_CLASSES~Antithrombotic THERAPEUTIC_CLASSES~Antiviral THERAPEUTIC_CLASSES~Dermatological THERAPEUTIC_CLASSES~GI_inflammatorybowel_disorders THERAPEUTIC_CLASSES~Haematological THERAPEUTIC_CLASSES~Immunological THERAPEUTIC_CLASSES~Immunosuppressant THERAPEUTIC_CLASSES~Monoclonal_antibody THERAPEUTIC_CLASSES~Multiple_sclerosis_treatment THERAPEUTIC_CLASSES~Ophthalmological THERAPEUTIC_CLASSES~Reformulation THERAPEUTIC_CLASSES~Respiratory THERAPEUTIC_CLASSES~Urological PRIMARY_ENDPOINTS~_Cmax PRIMARY_ENDPOINTS~_Common_Terminology_Criteria_for_Adverse_Events PRIMARY_ENDPOINTS~_Disease_Progression PRIMARY_ENDPOINTS~_Dose_limiting_toxicities PRIMARY_ENDPOINTS~_Elimination_half_life PRIMARY_ENDPOINTS~_Maximum_tolerated_dose PRIMARY_ENDPOINTS~_Overall_response_rate PRIMARY_ENDPOINTS~_Overall_survival PRIMARY_ENDPOINTS~_Partial_response PRIMARY_ENDPOINTS~_Plasma_concentration PRIMARY_ENDPOINTS~_Progression_free_survival PRIMARY_ENDPOINTS~_Progressive_disease_rate PRIMARY_ENDPOINTS~_Response_evaluation_criteria_in_solid_tumors PRIMARY_ENDPOINTS~_Response_rate PRIMARY_ENDPOINTS~_Safety_and_Tolerability PRIMARY_ENDPOINTS~_Serious_Adverse_Events PRIMARY_ENDPOINTS~_Tmax PRIMARY_ENDPOINTS~_Visual_Analog_Scale PRIMARY_ENDPOINTS~_Vital_signs PRIMARY_ENDPOINTS~Adverse_Events PRIMARY_ENDPOINTS~Area_under_the_curve_score PRIMARY_ENDPOINTS~Complete_response PRIMARY_ENDPOINTS~Disease_Progression PRIMARY_ENDPOINTS~Progression_free_survival SECONDARY_ENDPOINTS~_Area_under_the_curve_score SECONDARY_ENDPOINTS~_C_reactive_protein SECONDARY_ENDPOINTS~_Clinical_Global_Impression SECONDARY_ENDPOINTS~_Cmax SECONDARY_ENDPOINTS~_Complete_response SECONDARY_ENDPOINTS~_DAS28 SECONDARY_ENDPOINTS~_Disease_Progression SECONDARY_ENDPOINTS~_Duration_of_overall_response SECONDARY_ENDPOINTS~_Elimination_half_life SECONDARY_ENDPOINTS~_Overall_response_rate SECONDARY_ENDPOINTS~_Overall_response_rate___duration SECONDARY_ENDPOINTS~_Overall_survival SECONDARY_ENDPOINTS~_Partial_response SECONDARY_ENDPOINTS~_Plasma_concentration SECONDARY_ENDPOINTS~_Progression_free_survival SECONDARY_ENDPOINTS~_Progressive_disease_rate SECONDARY_ENDPOINTS~_Quality_of_Life SECONDARY_ENDPOINTS~_Response_evaluation_criteria_in_solid_tumors SECONDARY_ENDPOINTS~_Response_rate SECONDARY_ENDPOINTS~_Safety_and_Tolerability SECONDARY_ENDPOINTS~_Serious_Adverse_Events SECONDARY_ENDPOINTS~_Stable_Disease SECONDARY_ENDPOINTS~_Tmax SECONDARY_ENDPOINTS~_Visual_Analog_Scale SECONDARY_ENDPOINTS~Adverse_Events SECONDARY_ENDPOINTS~Area_under_the_curve_score STUDY_PHASE_GROUP~Phase1 STUDY_PHASE_GROUP~Phase2 STUDY_PHASE_GROUP~Phase3 STUDY_PHASE_GROUP~Phase4 THERAPEUTIC_AREA_GROUP~I2O THERAPEUTIC_AREA_GROUP~NS THERAPEUTIC_AREA_GROUP~ONC THERAPEUTIC_AREA_GROUP~OTH DISTRIBUTION~MultiCountryStudy DISTRIBUTION~SingleCountryStudy DISTRIBUTION~SingleSiteStudy COMPARISON~ACTIVEANDPLACEBOCONTROLLED COMPARISON~ACTIVECONTROLLED COMPARISON~NONCONTROLLED COMPARISON~PLACEBOCONTROLLED RANDOMIZATION~Nonrandomized RANDOMIZATION~Randomized INTERVENTIONAL_STUDY_MODEL~No INTERVENTIONAL_STUDY_MODEL~Yes BLINDING~DoubleBlind BLINDING~OpenLabel BLINDING~SingleBlind PAT_CRIT_GENDER~Both PAT_CRIT_GENDER~Female PAT_CRIT_GENDER~Male DRUG_PRIMARY_NAME~AMG282 DRUG_PRIMARY_NAME~AMG282SC DRUG_PRIMARY_NAME~ARRY575 DRUG_PRIMARY_NAME~BFKB8488A DRUG_PRIMARY_NAME~CUDC427 DRUG_PRIMARY_NAME~DCDS0780A DRUG_PRIMARY_NAME~DCLL9718S DRUG_PRIMARY_NAME~DFRF4539A DRUG_PRIMARY_NAME~DNaseGenentech DRUG_PRIMARY_NAME~EpidermalgrowthfactorEGFointment DRUG_PRIMARY_NAME~GDC0134 DRUG_PRIMARY_NAME~GV1001intradermal DRUG_PRIMARY_NAME~MB11362 DRUG_PRIMARY_NAME~MEM3454 DRUG_PRIMARY_NAME~MHAA4549A DRUG_PRIMARY_NAME~MOXR0916 DRUG_PRIMARY_NAME~Part2TreatmentDRO7033877andmoxifloxacinplacebo DRUG_PRIMARY_NAME~Placebo DRUG_PRIMARY_NAME~R7112oral DRUG_PRIMARY_NAME~RG4733 DRUG_PRIMARY_NAME~RG6047 DRUG_PRIMARY_NAME~RG6146 DRUG_PRIMARY_NAME~RG7112 DRUG_PRIMARY_NAME~RG7129 DRUG_PRIMARY_NAME~RG7203 DRUG_PRIMARY_NAME~RG7212 DRUG_PRIMARY_NAME~RG7345 DRUG_PRIMARY_NAME~RG7356 DRUG_PRIMARY_NAME~RG7594 DRUG_PRIMARY_NAME~RG7600 DRUG_PRIMARY_NAME~RG7602 DRUG_PRIMARY_NAME~RG7603 DRUG_PRIMARY_NAME~RG7636 DRUG_PRIMARY_NAME~RG7652 DRUG_PRIMARY_NAME~RG7787 DRUG_PRIMARY_NAME~RG7800 DRUG_PRIMARY_NAME~RG7816 DRUG_PRIMARY_NAME~RG7842 DRUG_PRIMARY_NAME~RG7861 DRUG_PRIMARY_NAME~RG7880sc DRUG_PRIMARY_NAME~RG7882 DRUG_PRIMARY_NAME~RG7907 DRUG_PRIMARY_NAME~RO5028442 DRUG_PRIMARY_NAME~RO5093151 DRUG_PRIMARY_NAME~RO5095932 DRUG_PRIMARY_NAME~RO5428029 DRUG_PRIMARY_NAME~RO5469754 DRUG_PRIMARY_NAME~RO6799477 DRUG_PRIMARY_NAME~RO6806127 DRUG_PRIMARY_NAME~RO6811135 DRUG_PRIMARY_NAME~RO6811135iv DRUG_PRIMARY_NAME~RO6864018 DRUG_PRIMARY_NAME~RO7020531 DRUG_PRIMARY_NAME~RO7058584 DRUG_PRIMARY_NAME~RO7062931 DRUG_PRIMARY_NAME~RO5271983SAD DRUG_PRIMARY_NAME~RO7033877Bronchoscopy DRUG_PRIMARY_NAME~SPC2968 DRUG_PRIMARY_NAME~TB403 DRUG_PRIMARY_NAME~TriamcinoloneAcetonide DRUG_PRIMARY_NAME~18FMNI798 DRUG_PRIMARY_NAME~18FRO6958948 DRUG_PRIMARY_NAME~afasevikumab DRUG_PRIMARY_NAME~alectinibhydrochloride DRUG_PRIMARY_NAME~aleglitazar DRUG_PRIMARY_NAME~allogeneicstemcells DRUG_PRIMARY_NAME~alteplase DRUG_PRIMARY_NAME~apitolisib DRUG_PRIMARY_NAME~atezolizumab DRUG_PRIMARY_NAME~balovaptan DRUG_PRIMARY_NAME~balovaptancapsule DRUG_PRIMARY_NAME~basimglurant DRUG_PRIMARY_NAME~basimglurantimmediaterelease DRUG_PRIMARY_NAME~basmisanil DRUG_PRIMARY_NAME~bevacizumab DRUG_PRIMARY_NAME~bitopertin DRUG_PRIMARY_NAME~boceprevir DRUG_PRIMARY_NAME~brilanestrant DRUG_PRIMARY_NAME~capecitabine DRUG_PRIMARY_NAME~cergutuzumabamunaleukin DRUG_PRIMARY_NAME~cobimetinib DRUG_PRIMARY_NAME~cobimetiniboraltablet DRUG_PRIMARY_NAME~crenezumabintravenous DRUG_PRIMARY_NAME~crenezumabsubcutaneous DRUG_PRIMARY_NAME~cyclophosphamide DRUG_PRIMARY_NAME~dalcetrapib DRUG_PRIMARY_NAME~danoprevir DRUG_PRIMARY_NAME~danoprevircapsule DRUG_PRIMARY_NAME~decitabineSC DRUG_PRIMARY_NAME~decoglurant DRUG_PRIMARY_NAME~decogluranttablet DRUG_PRIMARY_NAME~docetaxel DRUG_PRIMARY_NAME~duligotuzumab DRUG_PRIMARY_NAME~emicizumab DRUG_PRIMARY_NAME~entecavirtablet DRUG_PRIMARY_NAME~entrectinib DRUG_PRIMARY_NAME~epoetinbetapegol DRUG_PRIMARY_NAME~epoetinbetapegolSC DRUG_PRIMARY_NAME~epoetinbetaRoche DRUG_PRIMARY_NAME~eribulinmesylate DRUG_PRIMARY_NAME~erlotinib DRUG_PRIMARY_NAME~erlotinibcapsule DRUG_PRIMARY_NAME~etrolizumabSC DRUG_PRIMARY_NAME~etrolizumabcompaniondiagnostic DRUG_PRIMARY_NAME~faricimab DRUG_PRIMARY_NAME~fenebrutinib DRUG_PRIMARY_NAME~fluorouracil DRUG_PRIMARY_NAME~fluticasonepropionateinhaled DRUG_PRIMARY_NAME~gantenerumabSC DRUG_PRIMARY_NAME~gemcitabinehydrochloride DRUG_PRIMARY_NAME~iadademstat DRUG_PRIMARY_NAME~idasanutlin DRUG_PRIMARY_NAME~imgatuzumab DRUG_PRIMARY_NAME~inclacumab DRUG_PRIMARY_NAME~interferonGenentechalpha2a DRUG_PRIMARY_NAME~ipatasertib DRUG_PRIMARY_NAME~itraconazole DRUG_PRIMARY_NAME~lampalizumab DRUG_PRIMARY_NAME~lebrikizumab DRUG_PRIMARY_NAME~lifastuzumabvedotin DRUG_PRIMARY_NAME~lumretuzumab DRUG_PRIMARY_NAME~mericitabine DRUG_PRIMARY_NAME~metformin DRUG_PRIMARY_NAME~methotrexateoral DRUG_PRIMARY_NAME~miravirsenSC DRUG_PRIMARY_NAME~mitomycinC DRUG_PRIMARY_NAME~murepavadin DRUG_PRIMARY_NAME~mycophenolatemofetiltablet DRUG_PRIMARY_NAME~navoximod DRUG_PRIMARY_NAME~obinutuzumab DRUG_PRIMARY_NAME~ocrelizumab DRUG_PRIMARY_NAME~omalizumab DRUG_PRIMARY_NAME~omalizumabSC DRUG_PRIMARY_NAME~onartuzumab DRUG_PRIMARY_NAME~oseltamivirphosphate DRUG_PRIMARY_NAME~oseltamivirphosphateIV DRUG_PRIMARY_NAME~oseltamivirphosphateoralsuspension DRUG_PRIMARY_NAME~oxaliplatin DRUG_PRIMARY_NAME~oxaliplatinIV DRUG_PRIMARY_NAME~paclitaxel DRUG_PRIMARY_NAME~parsatuzumab DRUG_PRIMARY_NAME~pateclizumabSC DRUG_PRIMARY_NAME~paxalisib DRUG_PRIMARY_NAME~peginterferonalfa2a DRUG_PRIMARY_NAME~peginterferonalfa2aSC DRUG_PRIMARY_NAME~peginterferonalpha2aIV DRUG_PRIMARY_NAME~pemetrexeddisodium DRUG_PRIMARY_NAME~perakizumab DRUG_PRIMARY_NAME~pertuzumab DRUG_PRIMARY_NAME~petesicatib DRUG_PRIMARY_NAME~pictilisib DRUG_PRIMARY_NAME~pictilisibtablet DRUG_PRIMARY_NAME~pirfenidone DRUG_PRIMARY_NAME~polatuzumabvedotin DRUG_PRIMARY_NAME~pravastatin DRUG_PRIMARY_NAME~quilizumab DRUG_PRIMARY_NAME~quilizumabIV DRUG_PRIMARY_NAME~quilizumabSC DRUG_PRIMARY_NAME~ranibizumab DRUG_PRIMARY_NAME~ranibizumab05or20mg005cc DRUG_PRIMARY_NAME~ranibizumabsustainedreleaseRoche DRUG_PRIMARY_NAME~ribavirintabletRoche DRUG_PRIMARY_NAME~ribavirinRoche DRUG_PRIMARY_NAME~ribavirinunspecified DRUG_PRIMARY_NAME~risdiplam DRUG_PRIMARY_NAME~ritonavir DRUG_PRIMARY_NAME~ritonavirdanoprevirHoffmannLaRoche DRUG_PRIMARY_NAME~rituximab DRUG_PRIMARY_NAME~rituximabIV DRUG_PRIMARY_NAME~rituximabSC DRUG_PRIMARY_NAME~rituximabSCHalozyme DRUG_PRIMARY_NAME~rituximabintrathecal DRUG_PRIMARY_NAME~rituximabplacebo DRUG_PRIMARY_NAME~selicrelumabSC DRUG_PRIMARY_NAME~sembragiline DRUG_PRIMARY_NAME~setrobuvir DRUG_PRIMARY_NAME~setrobuvircapsule DRUG_PRIMARY_NAME~sofituzumabvedotin DRUG_PRIMARY_NAME~surgicalintervention DRUG_PRIMARY_NAME~tacrolimuscapsule DRUG_PRIMARY_NAME~talditerceptalfa DRUG_PRIMARY_NAME~taselisib DRUG_PRIMARY_NAME~taselisibcapsule DRUG_PRIMARY_NAME~taselisibtablet DRUG_PRIMARY_NAME~taspoglutide DRUG_PRIMARY_NAME~temozolomide DRUG_PRIMARY_NAME~temsirolimusIV DRUG_PRIMARY_NAME~tocilizumab DRUG_PRIMARY_NAME~tocilizumabIV DRUG_PRIMARY_NAME~tocilizumabSC DRUG_PRIMARY_NAME~trastuzumab DRUG_PRIMARY_NAME~trastuzumabIV DRUG_PRIMARY_NAME~trastuzumabemtansine DRUG_PRIMARY_NAME~trastuzumabEnhanze DRUG_PRIMARY_NAME~undisclosedDMARD DRUG_PRIMARY_NAME~undisclosedchemotherapy DRUG_PRIMARY_NAME~undisclosedimmunosuppressivedrug DRUG_PRIMARY_NAME~valganciclovirsolution DRUG_PRIMARY_NAME~vanucizumab DRUG_PRIMARY_NAME~vemurafenib DRUG_PRIMARY_NAME~venetoclax DRUG_PRIMARY_NAME~vinblastine DRUG_PRIMARY_NAME~vincristine DRUG_PRIMARY_NAME~vincristineTekmira DRUG_PRIMARY_NAME~vinorelbineoral DRUG_PRIMARY_NAME~vismodegib DRUG_PRIMARY_NAME~vismodegiboral DRUG_PRIMARY_NAME~vorinostatoral INDICATION~AcquiredHaemolyticAnaemia INDICATION~AcuteMyeloidLeukemia INDICATION~AcuteMyocardialInfarction INDICATION~AlzheimerSDisease INDICATION~AnaemiaInChronicDiseasesClassifiedElsewhere INDICATION~AnaemiaInNeoplasticDisease INDICATION~AnxietyDisordersOther INDICATION~Asthma INDICATION~Atherosclerosis INDICATION~AtopicDermatitis INDICATION~Autism INDICATION~BacterialInfectionOfUnspecifiedSite INDICATION~BladderCancer INDICATION~BreastCancer INDICATION~Cancer INDICATION~CervicalCancer INDICATION~ChronicObstructivePulmonaryDisease INDICATION~ChronicRenalFailureAnemia INDICATION~ChronicViralHepatitis INDICATION~CoeliacDisease INDICATION~ColorectalCancer INDICATION~CrohnSDisease INDICATION~Cytomegalovirus INDICATION~DementiaInAlzheimerSDisease INDICATION~DepressiveEpisode INDICATION~DermatitisAllergicContact INDICATION~DiabetesMellitus INDICATION~DiabeticMacularEdema INDICATION~DiffuseNonHodgkinSLymphoma INDICATION~DownSSyndrome INDICATION~DuchenneMuscularDystrophy INDICATION~FailureRejectionOfTransplantedOrgansTissue INDICATION~FollicularNodularNonHodgkinSLymphoma INDICATION~FragileXSyndrome INDICATION~GastricCancer INDICATION~Glaucoma INDICATION~HeartFailure INDICATION~HemophiliaA INDICATION~HepatocellularCarcinoma INDICATION~HivDiseaseUnspecified INDICATION~HypofunctionOtherDisordersOfPituitaryGland INDICATION~IdiopathicPulmonaryFibrosisIab INDICATION~InflammatoryBowelDisease INDICATION~Influenza INDICATION~IrritableBowelSyndrome INDICATION~KidneyCancer INDICATION~LeukemiaAcute INDICATION~LipidaemiasDisordersOfLipoproteinMetabOther INDICATION~LupusErythematosus INDICATION~LymphoidLeukaemia INDICATION~MalignantConnectiveTissueNeoplasm INDICATION~MalignantImmunoproliferativeDiseases INDICATION~MalignantMelanomaOfSkin INDICATION~MalignantNeoplasmOfBiliaryTract INDICATION~MalignantNeoplasmOfBrain INDICATION~MalignantNeoplasmOfBronchusAndLung INDICATION~MalignantNeoplasmOfOtherAndIllDefinedSites INDICATION~MalignantNeoplasms INDICATION~MalignantNeoplasmsOfIndependentPrimary INDICATION~MalignantNeoplasmsOfLymphoidHaematopoietic INDICATION~MotorNeuronDisease INDICATION~MovementDisorder INDICATION~MultipleSclerosisIab INDICATION~MyeloidLeukemia INDICATION~NephroticSyndrome INDICATION~NonHodgkinSLymphoma INDICATION~NonSmallCellLungCancer INDICATION~Obesity INDICATION~ObsessiveCompulsiveDisorder INDICATION~Osteonecrosis INDICATION~OsteoporosisWithPathologicalFracture INDICATION~OsteoporosisWithoutPathologicalFracture INDICATION~OtherDiseasesOfUpperRespiratoryTract INDICATION~OtherDisordersInvolvingTheImmuneMechanism INDICATION~OtherLeukaemiasOfSpecifiedCellType INDICATION~OtherMalignantNeoplasmsOfSkin INDICATION~OtherSystemicInvolvementOfConnectiveTissue INDICATION~OvarianCancer INDICATION~Pain INDICATION~PancreaticCancer INDICATION~Pemphigus INDICATION~PlasmaCellNeoplasms INDICATION~Pneumonia INDICATION~PolyarteritisNodosaAndRelatedConditions INDICATION~PolycythemiaVera INDICATION~ProstateCancer INDICATION~Psoriasis INDICATION~PurpuraAndRelatedConditions INDICATION~RelapsingOrRelapsingRemittingMultipleSclerosis INDICATION~RetinalDisordersOther INDICATION~RheumatoidArthritis INDICATION~RheumatoidArthritisJuvenile INDICATION~Schizophrenia INDICATION~SecondaryMalignantNeoplasmOfBone INDICATION~SolidTumor INDICATION~SpinalMuscularAtrophyAndRelatedSyndromes INDICATION~Stroke INDICATION~SystemicLupusErythematosus INDICATION~SystemicSclerosis INDICATION~ThyrotoxicosisHyperthyroidism INDICATION~TransplantedOrganAndTissueStatusExclComplications INDICATION~UlcerativeColitis INDICATION~UnspecifiedNephriticSyndrome INDICATION~VenousEmbolismAndThrombosisOther INDICATION~ViralAgentsAsCauseOfDiseasesClassifToOth
feature_infos=[0:15] [0:21] [0:56] [0:52] [0:62] [0:75] [0.33000000000000002:100] [0:97] [2:354] [2:476] [0:25] [1:116] [0:339] [3:592] [0:9599] [0:1] [0:1] [0:1] [0:1] [0:1] [0:1] [0:1] [0:1] [0:1] [0:1] [0:1] [0:1] [0:1] [0:1] [0:1] [0:1] [0:1] [0:1] [0:1] [0:1] [0:1] [0:1] [0:1] [0:1] [0:1] [0:1] [0:1] [0:1] [0:1] [0:1] [0:1] [0:1] [0:1] [0:1] [0:1] [0:1] [0:1] [0:1] [0:1] [0:1] [0:1] [0:1] [0:1] [0:1] [0:1] [0:1] [0:1] [0:1] [0:1] [0:1] [0:1] [0:1] [0:1] [0:1] [0:1] [0:1] [0:1] [0:1] [0:1] [0:1] [0:1] [0:1] none [0:1] [0:1] [0:1] [0:1] [0:1] [0:1] [0:1] [0:1] [0:1] [0:1] [0:1] [0:1] [0:1] [0:1] [0:1] [0:1] [0:1] [0:1] [0:1] [0:1] [0:1] [0:1] [0:1] [0:1] [0:1] [0:1] [0:1] [0:1] [0:1] [0:1] [0:1] [0:1] [0:1] [0:1] [0:1] [0:1] [0:1] [0:1] [0:1] [0:1] [0:1] [0:1] [0:1] [0:1] [0:1] [0:1] [0:1] [0:1] [0:1] [0:1] [0:1] [0:1] [0:1] none [0:1] [0:1] [0:1] none none none none none none none none none none none none none none none none none none none none none none none none none none none none none none none none none none none none none none none none none none none none none none none none none none none none none none none none none none none none none none none none none none none none none none none none none none [0:1] none none none none none none none none none none none none none none none none none none none none none none none none none [0:1] none none none none none none none none none none none none none none none none none none none none none none none none none none none none none none none none none none none none none none none none none none none none none none none none none none none none none none none none none none none none none none none none none none none [0:1] none none none none none none none none none none none none none none none none none none none [0:1] none none none none none none none none none none [0:1] none none none none none none none none none none none [0:1] [0:1] none none [0:1] none none none none none [0:1] [0:1] none none none [0:1] none [0:1] none none none none none [0:1] none none none none none none none [0:1] none none none none none none none none none none none none none none none none none [0:1] none [0:1] [0:1] none [0:1] none [0:1] none none none none none none none none none none none none none none none none none none none none none none none none none none none none none [0:1] [0:1] none [0:1] none none none none none none none none none none none none
tree_sizes=2811 2992 3210 3028 3245 3177 3159 3251 3248 3331 3347 3456 3439 3441 3349 3438 3363 3360 3270 3163 3352 3351 3502 3607 3518 3455 3617 3518 3436 3423 3511 3647 3672 3702 3588 3759 3920 3845 3747 3803 3606 3599 3531 3610 3765 3609 3861 3609 3606 3691 3847 3688 3854 3765 3757 3761 3835 3850 3929 3936 3853 3959 4014 3773 3989 3771 3852 3841 3943 3947 4024 3937 4030 3918 3853 3951 4052 3780 3838 3852 3946 4011 3914 3915 3937 4105 4035 3950 4014 4133 4034 4046 3962 3957 4046 3969 3967 3884 3967 3868 4120 3775 3949 3947 3945 3755 3881 3968 3858 3851 3970 3869 3872 4136 4045 4109 3945 3866 4027 3921 3851 4103 4125 4032 3945 3935 3939 3979 3947 3903 4049 4064 4221 4104 4316 4055 4178 4052 4207 4029 3861 3789 3935 3873 3858 3945 3862 3705 3976 4295 4298 4291 4304 4229 4228 4384 4316 4239 4155 3984 4108 4288 3947 4236 4202 4131 4039 4054 4174 3877 4143 3971 3982 4136 4142 4156 4164 4163 4167 4047 4142 4323 4127 4454 4217 4226 4228 4137 4142 4239 4136 4160 4066 4240 4134 4142 4072 4167 4069 4160 3985 3987 4151 4250 4151 4257 4242 4148 4187 4257 3992 4132 4070 4103 3997 4061 4315 4283 4167 4152 4300 4357 4489 4485 4338 4353 4160 4324 4537 3969 4089 4072 4229 4302 4071 4076 4232 4246 4244 4161 4359 4138 4428 4353 4348 4393 4062 4047 4443 4412 4579 4325 4075 3790 4226 4448 4432 4358 4067 4348 4345 4190 4319 4275 3972 4064 4232 4136 4166 4093 4182 4153 4091 4150 4064 4368 4158 4151 4209 4101 4166 4276 3993 4166 4045 4206 3957 3995 4164 4001 4181 4074 4261 4107 4287 4357 4143 4366 4283 4196 4181 4253 4197 4267 4290 4428 4433 4259 4106 4102 4084 4326 4161 4093 4151 4197 4085 4149 4209 4432 4187 4290 4279 4552 4105 4415 4183 4253 4294 4112 4249 4275 4025 3998 4453 4258 4285 4168 4237 4004 4394 4215 4173 4362 4274 3710 4181 4152 3900 4186 4201 4089 3943 4094 4003 4281 4276 4345 4172 4040 4279 4434 4210 4215 4258 4234 4173 4296 3927 4207 3954 4117 4241 4280 4299 4042 4105 4183 4106 4178 4067 4156 4168 4399 4155 4022 4447 3933 4057 4177 4215 4035 4386 4115 4161 4306 4033 4160 3999 4033 4199 4195 4292 4369 4293 4200 4374 4262 4189 4480 4312 4153 4327 4087 4204 4298 3944 4049 4307 4369 4224 4362 4372 4274 4345 4296 4393 4078 4552 4133 4187 4380 4299 4308 4357 4327 4156 4235 4046 4138 4376 4036 4235 4294 4364 4017 3909 4280 4194 4333 4430 4156 4163 4487 4239 4272 4330 4117 4043 4280 4306 4300 4323 4499 4313 4244 4070 3963 4391 4280 4209 4335 4321 4298 4221 4382 4422 4289 4396 4163 4282 4308 4332 4287 4140 4411 4095 4148 4180 4066 4288 4160 4124 4006 4407 4323 4456 4574 4248 4499 4123 4424 4311 4477 4368 4215 4153 4307 4231 4425 4142 4253 4300 4214 4145 4192 4272 4216 4543 4232 4321 3975 4417 4248 4195 4523 4136 4247 4238 4188 4211 4406 4304 4150 4489 4125 4384 4049 4223 4157 4234

Tree=0
num_leaves=33
num_cat=0
split_feature=14 14 14 14 110 127 122 14 120 14 114 28 120 2 122 3 28 0 111 23 361 123 116 45 127 33 14 116 129 1 3 14
split_gain=149.636 8.9498 6.21149 5.03119 2.95886 2.02943 1.72715 1.56911 1.15433 0.971221 0.775254 0.727417 0.698495 0.936138 0.834705 0.691429 0.898196 0.527095 0.381395 0.320654 0.306047 0.277343 0.60307 0.501885 0.366667 0.234428 0.193798 0.186053 0.137778 0.0380952 0.0303922 0.00357143
threshold=79.500000000000014 60.500000000000007 3.5000000000000004 99.500000000000014 1.0000000180025095e-35 1.0000000180025095e-35 1.0000000180025095e-35 50.500000000000007 1.0000000180025095e-35 154.50000000000003 1.0000000180025095e-35 1.0000000180025095e-35 1.0000000180025095e-35 10.500000000000002 1.0000000180025095e-35 10.500000000000002 1.0000000180025095e-35 3.5000000000000004 1.0000000180025095e-35 1.0000000180025095e-35 1.0000000180025095e-35 1.0000000180025095e-35 1.0000000180025095e-35 1.0000000180025095e-35 1.0000000180025095e-35 1.0000000180025095e-35 252.50000000000003 1.0000000180025095e-35 1.0000000180025095e-35 6.5000000000000009 12.500000000000002 29.500000000000004
decision_type=2 2 2 2 2 2 2 2 2 2 2 2 2 2 2 2 2 2 2 2 2 2 2 2 2 2 2 2 2 2 2 2
left_child=1 2 4 15 10 7 11 12 -7 21 -1 -3 13 29 17 -2 -17 18 -15 -9 25 22 -5 24 -23 26 27 30 -14 -4 -11 -20
right_child=3 6 5 9 -6 8 -8 19 -10 20 -12 -13 28 14 -16 16 -18 -19 31 -21 -22 23 -24 -25 -26 -27 -28 -29 -30 -31 -32 -33
leaf_value=60.079999999999998 60.200000000000003 60.015000000000001 59.670000000000002 60.460000000000001 59.579999999999998 59.899999999999999 60.060000000000002 59.950000000000003 59.710000000000001 61.240000000000002 59.630000000000003 59.890000000000001 59.579999999999998 59.630000000000003 59.765000000000001 60.204999999999998 59.960000000000001 59.75 59.609999999999999 59.920000000000002 61.380000000000003 60.399999999999999 60.590000000000003 60.600000000000001 60.630000000000003 62.18 63.920000000000002 61.240000000000002 59.700000000000003 59.75 61.369999999999997 59.799999999999997
leaf_weight=46 20 33 64 33 24 32 20 34 20 20 21 30 155 41 31 27 23 20 21 27 29 24 24 34 20 39 172 35 25 20 31 24
leaf_count=46 20 33 64 33 24 32 20 34 20 20 21 30 155 41 31 27 23 20 21 27 29 24 24 34 20 39 172 35 25 20 31 24
internal_value=60 59.9969 59.9964 60.0039 59.9988 59.996 59.9999 59.9958 59.9979 60.0043 59.9999 59.9991 59.9956 59.996 59.9965 60.0014 60.0008 59.996 59.9957 59.9973 60.0046 60.0036 60.0041 60.0032 60.0025 60.0047 60.0048 60.0044 59.9951 59.9951 60.0048 59.9963
internal_weight=0 688 605 531 91 514 83 462 52 461 67 63 401 221 137 70 50 106 86 61 326 135 57 78 44 297 258 86 180 84 51 45
internal_count=1219 688 605 531 91 514 83 462 52 461 67 63 401 221 137 70 50 106 86 61 326 135 57 78 44 297 258 86 180 84 51 45
is_linear=0
shrinkage=1


Tree=1
num_leaves=34
num_cat=0
split_feature=14 14 14 110 10 123 127 113 14 39 14 114 120 2 122 2 0 111 361 123 116 45 127 33 14 14 116 114 129 114 1 3 14
split_gain=145.348 16.3771 6.58634 2.95886 2.57351 1.81741 1.59403 1.5393 1.17049 1.01052 0.971221 0.775254 0.698495 0.936138 0.834705 0.683761 0.527095 0.381395 0.306047 0.277343 0.60307 0.501885 0.366667 0.234428 0.193798 0.187778 0.186053 0.175668 0.137778 0.0909091 0.0380952 0.0303922 0.00357143
threshold=59.500000000000007 99.500000000000014 3.5000000000000004 1.0000000180025095e-35 2.5000000000000004 1.0000000180025095e-35 1.0000000180025095e-35 1.0000000180025095e-35 50.500000000000007 1.0000000180025095e-35 154.50000000000003 1.0000000180025095e-35 1.0000000180025095e-35 10.500000000000002 1.0000000180025095e-35 7.5000000000000009 3.5000000000000004 1.0000000180025095e-35 1.0000000180025095e-35 1.0000000180025095e-35 1.0000000180025095e-35 1.0000000180025095e-35 1.0000000180025095e-35 1.0000000180025095e-35 252.50000000000003 69.500000000000014 1.0000000180025095e-35 1.0000000180025095e-35 1.0000000180025095e-35 1.0000000180025095e-35 6.5000000000000009 12.500000000000002 29.500000000000004
decision_type=2 2 2 2 2 2 2 2 2 2 2 2 2 2 2 2 2 2 2 2 2 2 2 2 2 2 2 2 2 2 2 2 2
left_child=2 4 3 11 -2 15 8 9 12 -7 19 -1 13 30 16 -6 17 -15 23 20 -3 22 -21 24 26 -17 31 -9 -14 -8 -4 -12 -19
right_child=1 10 6 -5 5 7 29 27 -10 -11 18 -13 28 14 -16 25 -18 32 -20 21 -22 -23 -24 -25 -26 -27 -28 -29 -30 -31 -32 -33 -34
leaf_value=0.07920000000000002 -0.13045000000000001 0.45540000000000003 -0.32670000000000005 -0.4158 0.0098499999999999942 -0.10015 -0.24710000000000001 0.14799999999999996 -0.07920000000000002 0.041099999999999998 1.2276 -0.36630000000000001 -0.4158 -0.36630000000000001 -0.23265000000000002 0.0093999999999999778 -0.2475 -0.3861 1.3662000000000001 0.39600000000000002 0.58409999999999995 0.59399999999999997 0.62370000000000003 2.1581999999999999 3.8807999999999998 0.23295000000000002 1.2276 0.13892499999999999 -0.29700000000000004 -0.14899999999999999 -0.2475 1.3563000000000001 -0.19799999999999998
leaf_weight=46 25 33 64 24 20 32 22 20 37 22 20 21 155 41 31 20 20 21 29 24 24 34 20 39 172 25 35 21 25 22 20 31 24
leaf_count=46 25 33 64 24 20 32 22 20 37 22 20 21 155 41 31 20 20 21 29 24 24 34 20 39 172 25 35 21 25 22 20 31 24
internal_value=0 0.00329721 -0.00362129 -0.00115385 0.000783784 0.00125 -0.00408714 0.000368421 -0.00426941 -0.000740741 0.00430586 -7.46269e-05 -0.00442643 -0.00404977 -0.00354015 0.00253846 -0.00396226 -0.00430233 0.00460123 0.00359259 0.00412281 0.00320513 0.0025 0.00469697 0.0048062 0.00322222 0.0044186 0.00182927 -0.00488889 -0.00227273 -0.00488095 0.00480392 -0.00366667
internal_weight=0 646 573 91 185 160 482 95 438 54 461 67 401 221 137 65 106 86 326 135 57 78 44 297 258 45 86 41 180 44 84 51 45
internal_count=1219 646 573 91 185 160 482 95 438 54 461 67 401 221 137 65 106 86 326 135 57 78 44 297 258 45 86 41 180 44 84 51 45
is_linear=0
shrinkage=0.01


Tree=2
num_leaves=36
num_cat=0
split_feature=14 14 14 110 127 9 123 127 39 14 14 114 120 2 122 2 0 111 361 123 116 45 127 82 114 33 129 114 14 4 3 1 122 14 14
split_gain=145.348 15.6803 6.58634 2.95886 1.59403 1.4859 2.05037 1.48929 1.67366 1.17049 0.913045 0.775254 0.698495 0.936138 0.834705 0.683761 0.527095 0.381395 0.287197 0.277343 0.60307 0.501885 0.366667 0.217787 0.187778 0.168153 0.137778 0.0909091 0.0647575 0.10071 0.230488 0.0380952 0.0352734 0.0222952 0.00357143
threshold=59.500000000000007 99.500000000000014 3.5000000000000004 1.0000000180025095e-35 1.0000000180025095e-35 26.500000000000004 1.0000000180025095e-35 1.0000000180025095e-35 1.0000000180025095e-35 50.500000000000007 154.50000000000003 1.0000000180025095e-35 1.0000000180025095e-35 10.500000000000002 1.0000000180025095e-35 8.5000000000000018 3.5000000000000004 1.0000000180025095e-35 1.0000000180025095e-35 1.0000000180025095e-35 1.0000000180025095e-35 1.0000000180025095e-35 1.0000000180025095e-35 1.0000000180025095e-35 1.0000000180025095e-35 1.0000000180025095e-35 1.0000000180025095e-35 1.0000000180025095e-35 373.00000000000006 1.5000000000000002 18.500000000000004 6.5000000000000009 1.0000000180025095e-35 72.500000000000014 29.500000000000004
decision_type=2 2 2 2 2 2 2 2 2 2 2 2 2 2 2 2 2 2 2 2 2 2 2 2 2 2 2 2 2 2 2 2 2 2 2
left_child=2 5 3 11 9 -2 15 8 33 12 19 -1 13 31 16 -7 17 -15 23 20 -3 22 -21 25 -17 28 -14 -6 29 32 -31 -4 -12 -8 -19
right_child=1 10 4 -5 27 6 7 -9 -10 -11 18 -13 26 14 -16 24 -18 34 -20 21 -22 -23 -24 -25 -26 -27 -28 -29 -30 30 -32 -33 -34 -35 -36
leaf_value=0.078408000000000019 -0.13949549999999999 0.45084600000000002 -0.32343300000000003 -0.41164200000000001 -0.24462899999999999 0.0097514999999999928 -0.057898500000000012 0.19661074999999997 0.072404500000000024 -0.078408000000000019 1.375324 -0.36263699999999999 -0.41164200000000001 -0.36263699999999999 -0.23032350000000001 0.13841324999999999 -0.24502499999999999 -0.382239 1.3525380000000002 0.39204 0.57825899999999997 0.58806000000000003 0.61746299999999998 2.3719920000000001 0.055620499999999996 2.5566179999999998 -0.29403000000000007 -0.14750999999999997 4.7669920000000001 1.375324 1.718658 -0.24502499999999999 1.415324 -0.084148500000000015 -0.19601999999999997
leaf_weight=46 21 33 64 24 22 20 20 26 30 37 60 21 155 41 31 25 20 21 29 24 24 34 20 24 20 32 25 22 119 20 21 20 21 23 24
leaf_count=46 21 33 64 24 22 20 20 26 30 37 60 21 155 41 31 25 20 21 29 24 24 34 20 24 20 32 25 22 119 20 21 20 21 23 24
internal_value=0 0.00329721 -0.00362129 -0.00115385 -0.00408714 0.000837838 0.00115854 0.000252525 -0.000479452 -0.00426941 0.00428416 -7.46269e-05 -0.00442643 -0.00404977 -0.00354015 0.00253846 -0.00396226 -0.00430233 0.00457055 0.00359259 0.00412281 0.00320513 0.0025 0.0046633 0.00322222 0.00474359 -0.00488889 -0.00227273 0.00483402 0.00467213 0.00426829 -0.00488095 0.00487654 -0.00174419 -0.00366667
internal_weight=0 646 573 91 482 185 164 99 73 438 461 67 401 221 137 65 106 86 326 135 57 78 44 297 45 273 180 44 241 122 41 84 81 43 45
internal_count=1219 646 573 91 482 185 164 99 73 438 461 67 401 221 137 65 106 86 326 135 57 78 44 297 45 273 180 44 241 122 41 84 81 43 45
is_linear=0
shrinkage=0.01


Tree=3
num_leaves=34
num_cat=0
split_feature=14 14 14 14 110 122 127 127 54 14 3 114 28 120 0 111 123 20 361 123 116 45 127 82 114 33 129 110 14 4 3 14 122
split_gain=145.75 13.2937 5.79247 3.65915 2.95886 1.85294 1.53809 1.37835 1.0449 0.913045 0.836286 0.775254 0.685714 0.656949 0.931133 1.02393 0.43618 0.406886 0.287197 0.277343 0.60307 0.501885 0.366667 0.217787 0.214286 0.168153 0.111035 0.0822511 0.0647575 0.10071 0.230488 0.0371088 0.0352734
threshold=60.500000000000007 99.500000000000014 3.5000000000000004 53.500000000000007 1.0000000180025095e-35 1.0000000180025095e-35 1.0000000180025095e-35 1.0000000180025095e-35 1.0000000180025095e-35 154.50000000000003 16.057782912023196 1.0000000180025095e-35 1.0000000180025095e-35 1.0000000180025095e-35 2.2727128046562393 1.0000000180025095e-35 1.0000000180025095e-35 1.0000000180025095e-35 1.0000000180025095e-35 1.0000000180025095e-35 1.0000000180025095e-35 1.0000000180025095e-35 1.0000000180025095e-35 1.0000000180025095e-35 1.0000000180025095e-35 1.0000000180025095e-35 1.0000000180025095e-35 1.0000000180025095e-35 373.00000000000006 1.5000000000000002 18.500000000000004 43.500000000000007 1.0000000180025095e-35
decision_type=2 2 2 2 2 2 2 2 2 2 2 2 2 2 2 2 2 2 2 2 2 2 2 2 2 2 2 2 2 2 2 2 2
left_child=2 5 4 6 11 7 13 8 12 19 -5 -1 -2 14 -4 17 -17 27 23 20 -3 22 -21 25 -8 28 31 -16 29 32 -31 -15 -11
right_child=1 9 3 10 -6 -7 24 -9 -10 18 -12 -13 -14 26 15 16 -18 -19 -20 21 -22 -23 -24 -25 -26 -27 -28 -29 -30 30 -32 -33 -34
leaf_value=0.077623919999999985 0.00059829499999999316 0.44633754000000003 -0.336535215 -0.0002641687500000245 -0.40752558 0.11568636749999996 -0.26813270999999994 0.1955696425 0.077736705000000017 1.36157076 -0.047773919999999991 -0.35901063 -0.126754015 -0.42752558000000002 -0.33302026500000004 -0.24779750750000001 -0.1940598 -0.18279750750000001 1.3390126200000001 0.38811960000000001 0.57247640999999994 0.58217940000000001 0.61128837000000003 2.3482720800000001 -0.18008490000000002 2.5310518200000001 -0.29108970000000006 -0.35901063 4.7193220800000004 1.36157076 1.7014714200000001 -0.12257475 1.4011707600000001
leaf_weight=46 40 33 69 25 24 34 21 21 28 60 37 21 30 134 28 23 40 29 29 24 24 34 20 24 21 32 26 38 119 20 21 23 21
leaf_count=46 40 33 69 25 24 34 21 21 28 60 37 21 30 134 28 23 40 29 29 24 24 34 20 24 21 32 26 38 119 20 21 23 21
internal_value=0 0.00343648 -0.00347934 -0.00389105 -0.00115385 0.000882353 -0.00420354 0.000294118 -0.000204082 0.00428416 -0.0016129 -7.46269e-05 -0.000857143 -0.00439024 -0.00403084 -0.00360759 -0.00261905 -0.00426316 0.00457055 0.00359259 0.00412281 0.00320513 0.0025 0.0046633 -0.00238095 0.00474359 -0.00483607 -0.00469697 0.00483402 0.00467213 0.00426829 -0.00493631 0.00487654
internal_weight=0 614 605 514 91 153 452 119 98 461 62 67 70 410 227 158 63 95 326 135 57 78 44 297 42 273 183 66 241 122 41 157 81
internal_count=1219 614 605 514 91 153 452 119 98 461 62 67 70 410 227 158 63 95 326 135 57 78 44 297 42 273 183 66 241 122 41 157 81
is_linear=0
shrinkage=0.01


Tree=4
num_leaves=36
num_cat=0
split_feature=14 14 14 110 127 9 123 113 14 39 14 5 114 120 2 122 0 111 361 123 116 45 127 82 33 129 114 114 14 4 3 1 122 114 14
split_gain=144.05 16.6794 6.58634 2.95886 1.59403 1.36039 1.95669 1.22049 1.17049 1.09093 0.913045 0.778846 0.775254 0.698495 0.936138 0.834705 0.527095 0.381395 0.287197 0.277343 0.60307 0.501885 0.366667 0.217787 0.168153 0.137778 0.1 0.0909091 0.0647575 0.10071 0.230488 0.0380952 0.0352734 0.025 0.00357143
threshold=59.500000000000007 99.500000000000014 3.5000000000000004 1.0000000180025095e-35 1.0000000180025095e-35 26.500000000000004 1.0000000180025095e-35 1.0000000180025095e-35 50.500000000000007 1.0000000180025095e-35 154.50000000000003 19.457886636115358 1.0000000180025095e-35 1.0000000180025095e-35 10.500000000000002 1.0000000180025095e-35 3.5000000000000004 1.0000000180025095e-35 1.0000000180025095e-35 1.0000000180025095e-35 1.0000000180025095e-35 1.0000000180025095e-35 1.0000000180025095e-35 1.0000000180025095e-35 1.0000000180025095e-35 1.0000000180025095e-35 1.0000000180025095e-35 1.0000000180025095e-35 373.00000000000006 1.5000000000000002 18.500000000000004 6.5000000000000009 1.0000000180025095e-35 1.0000000180025095e-35 29.500000000000004
decision_type=2 2 2 2 2 2 2 2 2 2 2 2 2 2 2 2 2 2 2 2 2 2 2 2 2 2 2 2 2 2 2 2 2 2 2
left_child=2 5 3 12 8 -2 11 9 13 -8 19 -7 -1 14 31 16 17 -16 23 20 -3 22 -21 24 28 -15 -9 -6 29 32 -31 -4 -12 -13 -19
right_child=1 10 4 -5 27 6 7 26 -10 -11 18 33 -14 25 15 -17 -18 34 -20 21 -22 -23 -24 -25 -26 -27 -28 -29 -30 30 -32 -33 -34 -35 -36
leaf_value=0.076847680799999984 -0.13868196831249996 0.44187416460000001 -0.31660856369999996 -0.40345032420000004 -0.23950138289999992 0.022406062575000014 -0.11189973640000002 0.14259819607499999 -0.077383729556250003 0.047803087950000038 1.3479550524000001 0.14676500382500002 -0.35542052369999999 -0.40325032420000001 -0.35555047552500002 -0.22511617613750001 -0.24074677492500002 -0.37647601200000003 1.3256224938000001 0.38423840399999998 0.56675164589999993 0.57635760599999997 0.60517548630000007 2.3247893592 2.5057413018000001 -0.28817880300000004 0.076959337950000026 -0.14423405100000003 4.6721288591999999 1.3479550524000001 1.6844567058 -0.23920939785000003 1.3871590523999999 0.053907431324999991 -0.19211920200000002
leaf_weight=46 21 33 64 24 22 25 33 20 37 26 60 20 21 155 41 31 20 21 29 24 24 34 20 24 32 25 20 22 119 20 21 20 21 20 24
leaf_count=46 21 33 64 24 22 25 33 20 37 26 60 20 21 155 41 31 20 21 29 24 24 34 20 24 32 25 20 22 119 20 21 20 21 20 24
internal_value=0 0.00326625 -0.00362129 -0.00115385 -0.00408714 0.00072973 0.00103659 0.000151515 -0.00426941 -0.000762712 0.00428416 0.00238462 -7.46269e-05 -0.00442643 -0.00404977 -0.00354015 -0.00396226 -0.00430233 0.00457055 0.00359259 0.00412281 0.00320513 0.0025 0.0046633 0.00474359 -0.00488889 0.0015 -0.00227273 0.00483402 0.00467213 0.00426829 -0.00488095 0.00487654 0.00325 -0.00366667
internal_weight=0 646 573 91 482 185 164 99 438 59 461 65 67 401 221 137 106 86 326 135 57 78 44 297 273 180 40 44 241 122 41 84 81 40 45
internal_count=1219 646 573 91 482 185 164 99 438 59 461 65 67 401 221 137 106 86 326 135 57 78 44 297 273 180 40 44 241 122 41 84 81 40 45
is_linear=0
shrinkage=0.01


Tree=5
num_leaves=35
num_cat=0
split_feature=14 14 14 14 110 122 127 127 54 14 114 120 2 122 28 0 3 111 14 123 116 45 127 361 82 114 130 1 18 129 4 4 1 14
split_gain=145.064 13.1247 6.35284 3.23644 2.38697 1.85294 1.65504 1.37835 1.0449 0.856666 0.775254 0.698495 0.936138 0.834705 0.685714 0.527095 0.45873 0.381395 0.380952 0.277343 0.60307 0.501885 0.366667 0.268947 0.202025 0.182114 0.152193 0.207792 0.197802 0.137778 0.0405036 0.136508 0.0380952 0.00357143
threshold=60.500000000000007 99.500000000000014 3.5000000000000004 50.500000000000007 1.0000000180025095e-35 1.0000000180025095e-35 1.0000000180025095e-35 1.0000000180025095e-35 1.0000000180025095e-35 154.50000000000003 1.0000000180025095e-35 1.0000000180025095e-35 10.500000000000002 1.0000000180025095e-35 1.0000000180025095e-35 3.5000000000000004 16.057782912023196 1.0000000180025095e-35 59.500000000000007 1.0000000180025095e-35 1.0000000180025095e-35 1.0000000180025095e-35 1.0000000180025095e-35 1.0000000180025095e-35 1.0000000180025095e-35 1.0000000180025095e-35 1.0000000180025095e-35 8.5000000000000018 1.0000000180025095e-35 1.0000000180025095e-35 1.5000000000000002 8.5000000000000018 6.5000000000000009 29.500000000000004
decision_type=2 2 2 2 2 2 2 2 2 2 2 2 2 2 2 2 2 2 2 2 2 2 2 2 2 2 2 2 2 2 2 2 2 2
left_child=2 5 4 6 10 7 11 8 14 19 -1 12 32 15 -2 17 -5 -14 -18 20 -3 22 -21 24 26 -8 30 28 -28 -13 -11 -32 -4 -19
right_child=1 9 3 16 -6 -7 25 -9 -10 23 -12 29 13 -15 -16 -17 18 33 -20 21 -22 -23 -24 -25 -26 -27 27 -29 -30 -31 31 -33 -34 -35
leaf_value=0.07607920399199998 5.3237736749949248e-05 0.43745542295400003 -0.31344247806299996 -0.012827385273250017 -0.39941582095800005 0.11306185378674996 -0.23710636907099988 0.19284435269550002 0.076189744570500012 2.3261435018759999 -0.35186631846300004 -0.39921782095799996 -0.35199497076975 -0.22286501437612505 -0.12436747748599998 -0.23833930717575003 -0.074928537029437484 -0.37271125188000009 -0.0011207809701250326 0.38039601995999994 0.56108412944099995 0.57059402993999997 0.59912373143700004 1.3123662688619999 2.301541465608 -0.17684171049000008 1.5551815162420002 3.190407570608 2.0806838887820001 -0.28529701497000004 2.3609461387419999 2.5511875137619997 -0.23681730387150005 -0.19019800998000003
leaf_weight=46 40 33 64 30 24 34 20 21 28 111 21 155 41 31 30 20 21 21 21 24 24 34 20 29 24 21 39 36 24 25 20 43 20 24
leaf_count=46 40 33 64 30 24 34 20 21 28 111 21 155 41 31 30 20 21 21 21 24 24 34 20 29 24 21 39 36 24 25 20 43 20 24
internal_value=0 0.0034202 -0.00347934 -0.00391051 -0.00104396 0.000882353 -0.00423077 0.000294118 -0.000204082 0.00426247 -7.46269e-05 -0.00442643 -0.00404977 -0.00354015 -0.000857143 -0.00396226 -0.00194444 -0.00430233 -0.00261905 0.00359259 0.00412281 0.00320513 0.0025 0.00453988 0.00462963 -0.00231707 0.00470696 0.00439394 0.00404762 -0.00488889 0.00488506 0.00468254 -0.00488095 -0.00366667
internal_weight=0 614 605 514 91 153 442 119 98 461 67 401 221 137 70 106 72 86 42 135 57 78 44 326 297 41 273 99 63 180 174 63 84 45
internal_count=1219 614 605 514 91 153 442 119 98 461 67 401 221 137 70 106 72 86 42 135 57 78 44 326 297 41 273 99 63 180 174 63 84 45
is_linear=0
shrinkage=0.01


Tree=6
num_leaves=35
num_cat=0
split_feature=14 14 14 14 110 10 122 130 127 5 3 120 2 114 14 122 3 14 14 14 114 28 361 111 123 82 114 130 1 18 129 4 4 1
split_gain=142.317 12.9449 6.18155 3.1096 2.38697 2.08599 2.49013 1.68766 1.5777 1.31483 0.982313 0.857284 1.15109 0.775254 0.737133 0.674396 0.45873 0.423397 0.396735 0.380952 0.35874 0.326861 0.268947 0.25344 0.224026 0.202025 0.182114 0.152193 0.207792 0.197802 0.137778 0.0405036 0.136508 0.0380952
threshold=60.500000000000007 100.50000000000001 3.5000000000000004 50.500000000000007 1.0000000180025095e-35 2.5000000000000004 1.0000000180025095e-35 1.0000000180025095e-35 1.0000000180025095e-35 19.457886636115358 13.500000000000002 1.0000000180025095e-35 10.500000000000002 1.0000000180025095e-35 154.50000000000003 1.0000000180025095e-35 16.057782912023196 40.500000000000007 79.500000000000014 59.500000000000007 1.0000000180025095e-35 1.0000000180025095e-35 1.0000000180025095e-35 1.0000000180025095e-35 1.0000000180025095e-35 1.0000000180025095e-35 1.0000000180025095e-35 1.0000000180025095e-35 8.5000000000000018 1.0000000180025095e-35 1.0000000180025095e-35 1.5000000000000002 8.5000000000000018 6.5000000000000009
decision_type=2 2 2 2 2 2 2 2 2 2 2 2 2 2 2 2 2 2 2 2 2 2 2 2 2 2 2 2 2 2 2 2 2 2
left_child=2 5 4 8 13 -2 7 9 11 -7 -9 12 33 -1 20 17 -5 23 -12 -18 21 -3 25 -14 -22 27 -10 31 29 -29 -13 -16 -33 -4
right_child=1 14 3 16 -6 6 -8 10 26 -11 18 30 15 -15 22 -17 19 -19 -20 -21 24 -23 -24 -25 -26 -27 -28 28 -30 -31 -32 32 -34 -35
leaf_value=0.075318411952079958 -0.12792024064424254 0.55547328814659003 -0.31030805328236993 -0.01269911142051754 -0.39542166274842006 0.171093770587295 0.15732398524888247 0.04154551837479499 -0.23473530538028989 0.30313249412263005 -0.082194532963367595 -0.39522564274841998 -0.35860497288705245 -0.34834765527837003 2.3028820668572401 -0.2206363642323638 -0.074179251659143117 -0.1082960298802 0.16090546703663244 -0.0011095731604237713 0.50808086872446001 0.56518068889359496 1.2992426061733802 -0.35635728345459627 0.61488808964060004 2.2785260509519203 -0.17507329338510005 1.5396297010795801 3.15850349490192 2.0598770498941796 -0.28244404482030006 2.3373366773545801 2.5256756386243802 -0.23444913083278507
leaf_weight=46 24 36 64 30 24 26 31 21 20 22 25 155 39 21 111 31 21 32 24 21 23 35 29 35 21 24 21 39 36 24 25 20 43 20
leaf_count=46 24 36 64 30 24 26 31 21 20 22 25 155 39 21 111 31 21 32 24 21 23 35 29 35 21 24 21 39 36 24 25 20 43 20
internal_value=0 0.00338762 -0.00344628 -0.0038716 -0.00104396 0.00106936 0.00151007 0.000847458 -0.00418552 0.00229167 -0.000142857 -0.00437656 -0.00395928 -7.46269e-05 0.00429705 -0.00339416 -0.00194444 -0.00377358 -0.000918367 -0.00261905 0.0036087 0.00316901 0.00453988 -0.00418919 0.00431818 0.00462963 -0.00231707 0.00470696 0.00439394 0.00404762 -0.00488889 0.00488506 0.00468254 -0.00488095
internal_weight=0 614 605 514 91 173 149 118 442 48 70 401 221 67 441 137 72 106 49 42 115 71 326 74 44 297 41 273 99 63 180 174 63 84
internal_count=1219 614 605 514 91 173 149 118 442 48 70 401 221 67 441 137 72 106 49 42 115 71 326 74 44 297 41 273 99 63 180 174 63 84
is_linear=0
shrinkage=0.01


Tree=7
num_leaves=36
num_cat=0
split_feature=14 14 14 14 110 10 122 130 127 5 3 120 2 114 122 14 3 14 14 14 114 28 130 103 1 111 123 123 14 114 10 129 356 1 1
split_gain=140.964 12.5837 6.18155 3.1096 2.38697 2.08599 2.49013 1.68766 1.5777 1.31483 0.982313 0.857284 1.15109 0.775254 0.674396 0.643202 0.45873 0.423397 0.396735 0.380952 0.35874 0.326861 0.289107 0.338012 0.301875 0.25344 0.224026 0.208848 0.347826 0.182114 0.147698 0.137778 0.043865 0.0380952 0.0277778
threshold=60.500000000000007 100.50000000000001 3.5000000000000004 50.500000000000007 1.0000000180025095e-35 2.5000000000000004 1.0000000180025095e-35 1.0000000180025095e-35 1.0000000180025095e-35 19.457886636115358 13.500000000000002 1.0000000180025095e-35 10.500000000000002 1.0000000180025095e-35 1.0000000180025095e-35 154.50000000000003 16.057782912023196 40.500000000000007 79.500000000000014 59.500000000000007 1.0000000180025095e-35 1.0000000180025095e-35 1.0000000180025095e-35 1.0000000180025095e-35 1.5000000000000002 1.0000000180025095e-35 1.0000000180025095e-35 1.0000000180025095e-35 328.50000000000006 1.0000000180025095e-35 1.5000000000000002 1.0000000180025095e-35 1.0000000180025095e-35 6.5000000000000009 14.500000000000002
decision_type=2 2 2 2 2 2 2 2 2 2 2 2 2 2 2 2 2 2 2 2 2 2 2 2 2 2 2 2 2 2 2 2 2 2 2
left_child=2 5 4 8 13 -2 7 9 11 -7 -9 12 33 -1 17 20 -5 25 -12 -18 21 -3 24 27 -17 -14 -22 28 -24 -10 -26 -13 -32 -4 -25
right_child=1 15 3 16 -6 6 -8 10 29 -11 18 31 14 -15 -16 22 19 -19 -20 -21 26 -23 23 34 30 -27 -28 -29 -30 -31 32 -33 -34 -35 -36
leaf_value=0.074565227832559131 -0.1266410382378001 0.54991855526512412 -0.30720497274954622 -0.01257212030631237 -0.39146744612093587 0.16938283288142203 0.15575074539639366 0.04113006319104702 -0.23238795232648699 0.30010116918140378 -0.081372587633733881 -0.39127338632093578 -0.35501892315818195 -0.34486417872558633 -0.21843000059004017 2.472173624832585 -0.073437459142551662 -0.10721306958139799 0.1592964123662661 -0.0010984774288194999 0.50300006003721531 0.55952888200465911 1.0812501801116463 2.7198225349188192 2.2521690904665852 -0.35279371062005027 0.60873920874419396 1.4094594584347844 4.7378548192732151 -0.17332256045124908 2.3194852805546673 -0.27961960437209704 2.7648532461886677 -0.23210463952445723 3.1269184599529005
leaf_weight=46 24 36 64 30 24 26 31 21 20 22 25 155 39 21 31 21 21 32 24 21 23 35 23 25 21 35 21 30 23 21 143 25 20 20 20
leaf_count=46 24 36 64 30 24 26 31 21 20 22 25 155 39 21 31 21 21 32 24 21 23 35 23 25 21 35 21 30 23 21 143 25 20 20 20
internal_value=0 0.00335505 -0.00344628 -0.0038716 -0.00104396 0.00106936 0.00151007 0.000847458 -0.00418552 0.00229167 -0.000142857 -0.00437656 -0.00395928 -7.46269e-05 -0.00339416 0.0042517 -0.00194444 -0.00377358 -0.000918367 -0.00261905 0.0036087 0.00316901 0.00447853 0.00409091 0.00470732 -0.00418919 0.00431818 0.00368421 0.00326087 -0.00231707 0.00483696 -0.00488889 0.00493865 -0.00488095 0.00477778
internal_weight=0 614 605 514 91 173 149 118 442 48 70 401 221 67 137 441 72 106 49 42 115 71 326 121 205 74 44 76 46 41 184 180 163 84 45
internal_count=1219 614 605 514 91 173 149 118 442 48 70 401 221 67 137 441 72 106 49 42 115 71 326 121 205 74 44 76 46 41 184 180 163 84 45
is_linear=0
shrinkage=0.01


Tree=8
num_leaves=36
num_cat=0
split_feature=14 14 14 14 110 10 122 130 127 5 3 120 2 114 122 14 3 14 14 14 114 28 130 103 1 111 123 123 14 114 10 129 356 1 1
split_gain=140.964 12.5837 6.18155 3.1096 2.38697 2.08599 2.49013 1.68766 1.5777 1.31483 0.982313 0.857284 1.15109 0.775254 0.674396 0.643202 0.45873 0.423397 0.396735 0.380952 0.35874 0.326861 0.289107 0.338012 0.301875 0.25344 0.224026 0.208848 0.347826 0.182114 0.147698 0.137778 0.043865 0.0380952 0.0277778
threshold=60.500000000000007 100.50000000000001 3.5000000000000004 50.500000000000007 1.0000000180025095e-35 2.5000000000000004 1.0000000180025095e-35 1.0000000180025095e-35 1.0000000180025095e-35 19.457886636115358 13.500000000000002 1.0000000180025095e-35 10.500000000000002 1.0000000180025095e-35 1.0000000180025095e-35 154.50000000000003 16.057782912023196 40.500000000000007 79.500000000000014 59.500000000000007 1.0000000180025095e-35 1.0000000180025095e-35 1.0000000180025095e-35 1.0000000180025095e-35 1.5000000000000002 1.0000000180025095e-35 1.0000000180025095e-35 1.0000000180025095e-35 328.50000000000006 1.0000000180025095e-35 1.5000000000000002 1.0000000180025095e-35 1.0000000180025095e-35 6.5000000000000009 14.500000000000002
decision_type=2 2 2 2 2 2 2 2 2 2 2 2 2 2 2 2 2 2 2 2 2 2 2 2 2 2 2 2 2 2 2 2 2 2 2
left_child=2 5 4 8 13 -2 7 9 11 -7 -9 12 33 -1 17 20 -5 25 -12 -18 21 -3 24 27 -17 -14 -22 28 -24 -10 -26 -13 -32 -4 -25
right_child=1 15 3 16 -6 6 -8 10 29 -11 18 31 14 -15 -16 22 19 -19 -20 -21 26 -23 23 34 30 -27 -28 -29 -30 -31 32 -33 -34 -35 -36
leaf_value=0.07381957555423356 -0.12537462785542211 0.54441936971247284 -0.30413292302205081 -0.012446399103249278 -0.38755277165972651 0.16768900455260777 0.1541932379424297 0.040718762559136541 -0.23006407280322216 0.29710015748958968 -0.080558861757396516 -0.38736065245772644 -0.35146873392660011 -0.34141553693833049 -0.21624570058413978 2.4474518885842595 -0.072703084551126132 -0.10614093888558401 0.15770344824260341 -0.0010874926545313102 0.49797005943684319 0.55393359318461255 1.0704376783105298 2.6926243095696316 2.229647399561919 -0.3492657735138498 0.60265181665675205 1.3953648638504366 4.6904762710804837 -0.17158933484673661 2.296290427749121 -0.2768234083283761 2.737204713726781 -0.22978359312921265 3.095649275353372
leaf_weight=46 24 36 64 30 24 26 31 21 20 22 25 155 39 21 31 21 21 32 24 21 23 35 23 25 21 35 21 30 23 21 143 25 20 20 20
leaf_count=46 24 36 64 30 24 26 31 21 20 22 25 155 39 21 31 21 21 32 24 21 23 35 23 25 21 35 21 30 23 21 143 25 20 20 20
internal_value=0 0.00335505 -0.00344628 -0.0038716 -0.00104396 0.00106936 0.00151007 0.000847458 -0.00418552 0.00229167 -0.000142857 -0.00437656 -0.00395928 -7.46269e-05 -0.00339416 0.0042517 -0.00194444 -0.00377358 -0.000918367 -0.00261905 0.0036087 0.00316901 0.00447853 0.00409091 0.00470732 -0.00418919 0.00431818 0.00368421 0.00326087 -0.00231707 0.00483696 -0.00488889 0.00493865 -0.00488095 0.00477778
internal_weight=0 614 605 514 91 173 149 118 442 48 70 401 221 67 137 441 72 106 49 42 115 71 326 121 205 74 44 76 46 41 184 180 163 84 45
internal_count=1219 614 605 514 91 173 149 118 442 48 70 401 221 67 137 441 72 106 49 42 115 71 326 121 205 74 44 76 46 41 184 180 163 84 45
is_linear=0
shrinkage=0.01


Tree=9
num_leaves=37
num_cat=0
split_feature=14 14 14 14 110 10 122 130 127 5 54 14 3 120 2 114 122 3 116 28 130 103 1 14 14 111 114 123 14 123 10 129 356 14 14 1
split_gain=138.936 12.2276 6.09678 3.53522 2.38697 2.08599 1.8939 1.49541 1.46431 1.31483 1.26 0.926117 0.836286 0.808576 0.998777 0.775254 0.724075 0.313043 0.358187 0.696966 0.289107 0.338012 0.301875 0.255245 0.229216 0.272508 0.214286 0.208848 0.347826 0.191304 0.147698 0.111035 0.043865 0.0371088 0.0321429 0.0277778
threshold=60.500000000000007 100.50000000000001 3.5000000000000004 53.500000000000007 1.0000000180025095e-35 2.5000000000000004 1.0000000180025095e-35 1.0000000180025095e-35 1.0000000180025095e-35 19.457886636115358 1.0000000180025095e-35 154.50000000000003 16.057782912023196 1.0000000180025095e-35 11.147413246353176 1.0000000180025095e-35 1.0000000180025095e-35 18.500000000000004 1.0000000180025095e-35 1.0000000180025095e-35 1.0000000180025095e-35 1.0000000180025095e-35 1.5000000000000002 40.500000000000007 40.500000000000007 1.0000000180025095e-35 1.0000000180025095e-35 1.0000000180025095e-35 328.50000000000006 1.0000000180025095e-35 1.5000000000000002 1.0000000180025095e-35 1.0000000180025095e-35 43.500000000000007 79.500000000000014 14.500000000000002
decision_type=2 2 2 2 2 2 2 2 2 2 2 2 2 2 2 2 2 2 2 2 2 2 2 2 2 2 2 2 2 2 2 2 2 2 2 2
left_child=2 5 4 8 15 -2 7 9 13 -7 34 17 -5 14 23 -1 24 18 29 -20 22 27 -13 -4 25 -16 -10 28 -22 -3 -24 33 -32 -15 -9 -23
right_child=1 11 3 12 -6 6 -8 10 26 -11 -12 20 -14 31 16 -17 -18 -19 19 -21 21 35 30 -25 -26 -27 -28 -29 -30 -31 32 -33 -34 -35 -36 -37
leaf_value=0.073081379798691226 -0.12412088157686789 0.49658275659321816 -0.33827202048542049 -0.00013764437096682513 -0.38367724394312924 0.1660121145070817 0.15265130556300541 -0.064753273139822556 -0.25371343207518993 0.29412915591469374 0.090453809933545209 2.4229773696984167 -0.043569860180614838 -0.40348704593314916 -0.34795404658733409 -0.33800138156894721 -0.20950935736579837 0.58889799348102301 0.54397517601534817 0.47810165799977145 1.0597333015274244 2.6656980664739356 2.2073509255663004 -0.12285372501683028 -0.1150795294967282 -0.34786259461031505 -0.16987344149826925 1.3814112152119322 4.6435715083696785 0.57162984024078645 2.2733275234716297 -0.27405517424509235 2.7098326665895134 -0.10653655423314916 -0.017956836567856235 3.0646927825998382
leaf_weight=46 24 22 73 25 24 26 31 24 21 22 25 21 37 134 35 21 30 23 27 20 23 25 21 26 31 32 21 30 23 23 143 26 20 23 21 20
leaf_count=46 24 22 73 25 24 26 31 24 21 22 25 21 37 134 35 21 30 23 27 20 23 25 21 26 31 32 21 30 23 23 143 26 20 23 21 20
internal_value=0 0.00332248 -0.00342975 -0.00385214 -0.00104396 0.00106936 0.00151007 0.000932203 -0.00415929 0.00229167 0 0.00420635 -0.0016129 -0.00434146 -0.00394273 -7.46269e-05 -0.00335937 0.00343478 0.00369565 0.00308511 0.00447853 0.00409091 0.00470732 -0.00469697 -0.00377551 -0.00410448 -0.00238095 0.00368421 0.00326087 0.00433333 0.00483696 -0.00483607 0.00493865 -0.00493631 -0.001 0.00477778
internal_weight=0 614 605 514 91 173 149 118 452 48 70 441 62 410 227 67 128 115 92 47 326 121 205 99 98 67 42 76 46 45 184 183 163 157 45 45
internal_count=1219 614 605 514 91 173 149 118 452 48 70 441 62 410 227 67 128 115 92 47 326 121 205 99 98 67 42 76 46 45 184 183 163 157 45 45
is_linear=0
shrinkage=0.01


Tree=10
num_leaves=37
num_cat=0
split_feature=14 14 14 14 110 9 123 113 127 39 14 120 2 114 122 14 119 130 103 2 3 116 28 123 14 1 14 14 111 114 123 10 129 356 14 1
split_gain=135.585 12.9628 5.92899 4.48765 2.38697 1.93669 1.84937 1.61181 1.46431 1.05212 0.872481 0.808576 0.998777 0.775254 0.724075 0.632325 0.476456 0.371827 0.424245 0.335424 0.313043 0.358187 0.696966 0.302098 0.543478 0.301875 0.255245 0.229216 0.272508 0.214286 0.191304 0.147698 0.111035 0.043865 0.0371088 0.0277778
threshold=60.500000000000007 100.50000000000001 3.5000000000000004 53.500000000000007 1.0000000180025095e-35 27.500000000000004 1.0000000180025095e-35 1.0000000180025095e-35 1.0000000180025095e-35 1.0000000180025095e-35 154.50000000000003 1.0000000180025095e-35 11.147413246353176 1.0000000180025095e-35 1.0000000180025095e-35 59.500000000000007 1.0000000180025095e-35 1.0000000180025095e-35 1.0000000180025095e-35 11.147413246353176 18.500000000000004 1.0000000180025095e-35 1.0000000180025095e-35 1.0000000180025095e-35 328.50000000000006 1.5000000000000002 40.500000000000007 40.500000000000007 1.0000000180025095e-35 1.0000000180025095e-35 1.0000000180025095e-35 1.5000000000000002 1.0000000180025095e-35 1.0000000180025095e-35 43.500000000000007 14.500000000000002
decision_type=2 2 2 2 2 2 2 2 2 2 2 2 2 2 2 2 2 2 2 2 2 2 2 2 2 2 2 2 2 2 2 2 2 2 2 2
left_child=2 5 4 8 13 -2 16 9 11 -8 20 12 26 -1 27 -5 -7 25 23 -9 21 30 -23 24 -19 -12 -4 28 -14 -10 -3 -27 34 -33 -13 -20
right_child=1 10 3 15 -6 6 7 19 29 -11 17 32 14 -15 -16 -17 -18 18 35 -21 -22 22 -24 -25 -26 31 -28 -29 -30 -31 -32 33 -34 -35 -36 -37
leaf_value=0.072350566000704289 -0.12287967276109925 0.49161692902728604 -0.33488930028056629 -0.046640614412194595 -0.37984047150369799 0.22697290652076882 -0.10609448761821053 0.10649716812527477 -0.251176297754438 0.065178967218220835 2.3987475960014328 -0.39945217547381767 -0.3444745061214608 -0.33462136775325774 -0.2074142637921404 -0.00026734983555478211 0.10661029411987531 1.0491359685121502 2.6390410858091959 0.29118786435554683 0.58300901354621271 0.53853542425519463 0.4733206414197737 1.3675971030598129 4.5971357932859815 2.1852774163106372 -0.12162518776666197 -0.11392873420176095 -0.34438396866421195 -0.16817470708328658 0.5659135418383785 2.2505942482369132 -0.27131462250264143 2.6827343399236181 -0.10547118869081765 3.03404585477384
leaf_weight=46 22 22 73 30 24 21 31 21 21 27 21 134 35 21 30 32 31 23 25 20 23 27 20 30 23 21 26 31 32 21 23 143 26 20 23 20
leaf_count=46 22 22 73 30 24 21 31 21 21 27 21 134 35 21 30 32 31 23 25 20 23 27 20 30 23 21 26 31 32 21 23 143 26 20 23 20
internal_value=0 0.00327362 -0.00339669 -0.00381323 -0.00104396 0.000953757 0.00135762 0.000555556 -0.00415929 -0.000517241 0.00418367 -0.00434146 -0.00394273 -7.46269e-05 -0.00335937 -0.00129032 0.00288462 0.00444785 0.00400826 0.00207317 0.00343478 0.00369565 0.00308511 0.00355263 0.00304348 0.00470732 -0.00469697 -0.00377551 -0.00410448 -0.00238095 0.00433333 0.00483696 -0.00483607 0.00493865 -0.00493631 0.00477778
internal_weight=0 614 605 514 91 173 151 99 452 58 441 410 227 67 128 62 52 326 121 41 115 92 47 76 46 205 99 98 67 42 45 184 183 163 157 45
internal_count=1219 614 605 514 91 173 151 99 452 58 441 410 227 67 128 62 52 326 121 41 115 92 47 76 46 205 99 98 67 42 45 184 183 163 157 45
is_linear=0
shrinkage=0.01


Tree=11
num_leaves=38
num_cat=0
split_feature=14 14 14 14 110 10 122 130 54 127 2 110 120 2 122 14 114 14 130 103 3 116 28 123 14 1 123 125 116 29 10 111 14 129 114 356 1
split_gain=136.276 10.2073 5.77795 7.02151 2.38697 1.6223 2.16121 1.79369 1.57809 1.57587 1.06004 1.05428 0.902643 0.929987 1.17502 0.872481 0.775254 0.448403 0.371827 0.424245 0.313043 0.358187 0.696966 0.302098 0.543478 0.301875 0.191304 0.148132 0.307451 0.619861 0.147698 0.130927 0.105337 0.175309 0.0909091 0.043865 0.0277778
threshold=65.500000000000014 100.50000000000001 57.500000000000007 3.5000000000000004 1.0000000180025095e-35 2.5000000000000004 1.0000000180025095e-35 1.0000000180025095e-35 1.0000000180025095e-35 1.0000000180025095e-35 11.147413246353176 1.0000000180025095e-35 1.0000000180025095e-35 11.147413246353176 1.0000000180025095e-35 154.50000000000003 1.0000000180025095e-35 40.500000000000007 1.0000000180025095e-35 1.0000000180025095e-35 18.500000000000004 1.0000000180025095e-35 1.0000000180025095e-35 1.0000000180025095e-35 328.50000000000006 1.5000000000000002 1.0000000180025095e-35 1.0000000180025095e-35 1.0000000180025095e-35 1.0000000180025095e-35 1.5000000000000002 1.0000000180025095e-35 47.500000000000007 1.0000000180025095e-35 1.0000000180025095e-35 1.0000000180025095e-35 14.500000000000002
decision_type=2 2 2 2 2 2 2 2 2 2 2 2 2 2 2 2 2 2 2 2 2 2 2 2 2 2 2 2 2 2 2 2 2 2 2 2 2
left_child=2 5 3 4 16 -2 7 10 -9 12 -7 31 13 17 27 20 -1 -5 25 23 21 26 -23 24 -20 -17 -3 28 -15 -30 -27 -4 33 -14 -11 -32 -21
right_child=1 15 11 9 -6 6 -8 8 -10 34 -12 -13 32 14 -16 18 -18 -19 19 36 -22 22 -24 -25 -26 30 -28 -29 29 -31 35 -33 -34 -35 -36 -37 -38
leaf_value=0.071627060340697213 -0.11702228995181464 0.48670075973701316 -0.012317885170151612 -0.33154040727776063 -0.37604206678866098 0.17273559097138314 0.18501972996042212 -0.066726410617317877 0.17390738841202755 -0.22271453477689362 0.29741793509200348 0.0062522555843231228 -0.39545765371907948 -0.33102976106024623 -0.18566512115421904 2.3747601200414183 -0.33127515407572516 -0.11464024735149536 1.0386446088270287 2.6126506749511034 0.57717892341075061 0.53315007001264259 0.46858743500557593 1.3539211320292148 4.5511644353531224 2.1634246421475307 0.56025440641999469 -0.14136469270974331 -0.17781396653816955 -0.32136469270974333 2.228088305754544 -0.0017443058844875026 -0.084416476803909429 -0.32860147627761499 -0.13244296001245368 2.6559069965243816 3.0037053962261013
leaf_weight=46 20 22 22 73 24 25 25 37 20 22 21 20 142 24 33 21 21 37 23 25 23 27 20 30 23 21 23 28 31 20 143 21 24 20 22 20 20
leaf_count=46 20 22 22 73 24 25 25 37 20 22 21 20 142 24 33 21 21 37 23 25 23 27 20 30 23 21 23 28 31 20 143 21 24 20 22 20 20
internal_value=0 0.00342105 -0.00326984 -0.00358907 -0.00104396 0.00114865 0.0015625 0.00092233 -0.000263158 -0.00407563 0.0023913 -0.000396825 -0.00425926 -0.00386179 -0.00330882 0.00418367 -7.46269e-05 -0.00454545 0.00444785 0.00400826 0.00343478 0.00369565 0.00308511 0.00355263 0.00304348 0.00470732 0.00433333 -0.00383495 -0.00406667 -0.00362745 0.00483696 -0.00127907 -0.00478495 -0.00487654 -0.00227273 0.00493865 0.00477778
internal_weight=0 589 630 567 91 148 128 103 57 476 46 63 432 246 136 441 67 110 326 121 115 92 47 76 46 205 45 103 75 51 184 43 186 162 44 163 45
internal_count=1219 589 630 567 91 148 128 103 57 476 46 63 432 246 136 441 67 110 326 121 115 92 47 76 46 205 45 103 75 51 184 43 186 162 44 163 45
is_linear=0
shrinkage=0.01


Tree=12
num_leaves=38
num_cat=0
split_feature=14 14 14 14 110 127 120 2 122 14 119 5 114 1 14 14 130 103 3 116 28 123 14 1 123 14 125 116 29 10 14 129 116 114 116 356 1
split_gain=136.011 11.9732 7.02151 4.73539 2.38697 1.57587 0.902643 0.929987 1.17502 0.872481 0.864154 0.800585 0.775254 0.559006 1.06004 0.448403 0.371827 0.424245 0.313043 0.358187 0.696966 0.302098 0.543478 0.301875 0.191304 0.187778 0.148132 0.307451 0.619861 0.147698 0.105337 0.175309 0.1 0.0909091 0.0625541 0.043865 0.0277778
threshold=79.500000000000014 57.500000000000007 3.5000000000000004 100.50000000000001 1.0000000180025095e-35 1.0000000180025095e-35 1.0000000180025095e-35 11.147413246353176 1.0000000180025095e-35 154.50000000000003 1.0000000180025095e-35 19.457886636115358 1.0000000180025095e-35 3.5000000000000004 87.500000000000014 40.500000000000007 1.0000000180025095e-35 1.0000000180025095e-35 18.500000000000004 1.0000000180025095e-35 1.0000000180025095e-35 1.0000000180025095e-35 328.50000000000006 1.5000000000000002 1.0000000180025095e-35 65.500000000000014 1.0000000180025095e-35 1.0000000180025095e-35 1.0000000180025095e-35 1.5000000000000002 47.500000000000007 1.0000000180025095e-35 1.0000000180025095e-35 1.0000000180025095e-35 1.0000000180025095e-35 1.0000000180025095e-35 14.500000000000002
decision_type=2 2 2 2 2 2 2 2 2 2 2 2 2 2 2 2 2 2 2 2 2 2 2 2 2 2 2 2 2 2 2 2 2 2 2 2 2
left_child=1 2 4 13 12 6 7 15 26 18 25 -12 -1 -2 -15 -4 23 21 19 24 -21 22 -18 -11 -5 -3 27 -9 -29 -25 31 -8 -13 -7 -16 -31 -19
right_child=3 10 5 9 -6 33 30 8 -10 16 11 32 -14 14 34 -17 17 36 -20 20 -22 -23 -24 29 -26 -27 -28 28 -30 35 -32 -33 -34 -35 -36 -37 -38
leaf_value=0.070910789737290258 0.079225170434261263 -0.031778517731348974 -0.32822500320498299 0.48183375213964297 -0.37228164612077436 -0.22048738942912471 -0.3915030771818887 -0.32771946344964376 -0.18380846994267688 2.3510125188410043 -0.012423050820927628 0.073263082825736278 -0.32796240253496789 0.17229959663041045 0.31045680435229428 -0.11349384487798041 1.0282581627387584 2.5865241682015925 0.57140713417664302 0.52781856931251625 0.46390156065552018 1.3403819207089225 4.5056527909995907 2.1417903957260553 0.55465186235579467 -0.0014102686521178498 -0.13995104578264589 -0.17603582687278788 -0.31815104578264591 2.2058074226969988 -0.083572312035870344 -0.32531546151483887 0.082815742266572345 -0.13111853041232913 0.3201621161425634 2.629347926559138 2.9736683422638408
leaf_weight=46 21 25 73 22 24 22 142 24 33 21 36 20 21 27 22 37 23 25 23 27 20 30 23 21 23 20 28 31 20 143 24 20 20 22 20 20 20
leaf_count=46 21 25 73 22 24 22 142 24 33 21 36 20 21 27 22 37 23 25 23 27 20 30 23 21 23 20 28 31 20 143 24 20 20 22 20 20 20
internal_value=0 -0.00297965 -0.00358907 0.00375706 -0.00104396 -0.00407563 -0.00425926 -0.00386179 -0.00330882 0.00418367 -0.000123967 0.000526316 -7.46269e-05 0.00166667 0.00210145 -0.00454545 0.00444785 0.00400826 0.00343478 0.00369565 0.00308511 0.00355263 0.00304348 0.00470732 0.00433333 -0.00122222 -0.00383495 -0.00406667 -0.00362745 0.00483696 -0.00478495 -0.00487654 0.0015 -0.00227273 0.00309524 0.00493865 0.00477778
internal_weight=0 688 567 531 91 476 432 246 136 441 121 76 67 90 69 110 326 121 115 92 47 76 46 205 45 45 103 75 51 184 186 162 40 44 42 163 45
internal_count=1219 688 567 531 91 476 432 246 136 441 121 76 67 90 69 110 326 121 115 92 47 76 46 205 45 45 103 75 51 184 186 162 40 44 42 163 45
is_linear=0
shrinkage=0.01


Tree=13
num_leaves=38
num_cat=0
split_feature=14 14 14 14 110 127 28 39 14 130 119 120 2 122 114 1 14 3 14 130 103 116 28 123 14 1 123 125 116 29 10 14 129 114 116 356 1
split_gain=135.838 11.4089 7.02151 4.65045 2.38697 1.57587 1.03281 1.62187 1.02869 0.948148 1 0.902643 0.929987 1.17502 0.775254 0.559006 1.06004 0.556522 0.448403 0.371827 0.424245 0.358187 0.696966 0.302098 0.543478 0.301875 0.191304 0.148132 0.307451 0.619861 0.147698 0.105337 0.175309 0.0909091 0.0625541 0.043865 0.0277778
threshold=79.500000000000014 57.500000000000007 3.5000000000000004 100.50000000000001 1.0000000180025095e-35 1.0000000180025095e-35 1.0000000180025095e-35 1.0000000180025095e-35 154.50000000000003 1.0000000180025095e-35 1.0000000180025095e-35 1.0000000180025095e-35 11.147413246353176 1.0000000180025095e-35 1.0000000180025095e-35 3.5000000000000004 87.500000000000014 18.500000000000004 40.500000000000007 1.0000000180025095e-35 1.0000000180025095e-35 1.0000000180025095e-35 1.0000000180025095e-35 1.0000000180025095e-35 328.50000000000006 1.5000000000000002 1.0000000180025095e-35 1.0000000180025095e-35 1.0000000180025095e-35 1.0000000180025095e-35 1.5000000000000002 47.500000000000007 1.0000000180025095e-35 1.0000000180025095e-35 1.0000000180025095e-35 1.0000000180025095e-35 14.500000000000002
decision_type=2 2 2 2 2 2 2 2 2 2 2 2 2 2 2 2 2 2 2 2 2 2 2 2 2 2 2 2 2 2 2 2 2 2 2 2 2
left_child=1 2 4 15 14 11 9 -8 17 -3 -11 12 18 27 -1 -2 -17 21 -4 25 23 26 -23 24 -21 -10 -5 28 -14 -30 -27 32 -13 -7 -18 -32 -22
right_child=3 6 5 8 -6 33 7 -9 19 10 -12 31 13 -15 -16 16 34 -19 -20 20 36 22 -24 -25 -26 30 -28 -29 29 -31 35 -33 -34 -35 -36 -37 -38
leaf_value=0.07020168183991736 0.07843291872991863 0.086702396921214564 -0.32494275317293314 0.47701541461824659 -0.3685588296595666 -0.21828251553483349 -0.1090502285894959 0.0089742652438765443 2.3275023936525945 -0.16297206729608391 0.02530234371550364 -0.38758804641006983 -0.32444226881514732 -0.18197038524325013 -0.32468277850961824 0.17057660066410635 0.3073522363087714 0.56569306283487664 -0.11235890642920061 1.0179755811113709 2.5606589265195772 0.52254038361939115 0.45926254504896508 1.3269781015018334 4.4605962630895943 2.1203724917687947 0.54910534373223674 -0.13855153532481942 -0.17427546860405996 -0.31496953532481942 2.1837493484700286 -0.082736588915511652 -0.32206230689969045 -0.12980734510820582 0.31696049498113782 2.6030544472935468 2.9439316588412021
leaf_weight=46 21 27 73 22 24 22 23 26 21 20 25 142 24 33 21 27 22 23 37 23 25 27 20 30 23 21 23 28 31 20 143 24 20 22 20 20 20
leaf_count=46 21 27 73 22 24 22 23 26 21 20 25 142 24 33 21 27 22 23 37 23 25 27 20 30 23 21 23 28 31 20 143 24 20 22 20 20 20
internal_value=0 -0.00299419 -0.00358907 0.00373823 -0.00104396 -0.00407563 -0.000206612 -0.00132653 0.004161 0.000555556 -0.000333333 -0.00425926 -0.00386179 -0.00330882 -7.46269e-05 0.00166667 0.00210145 0.00334783 -0.00454545 0.00444785 0.00400826 0.00369565 0.00308511 0.00355263 0.00304348 0.00470732 0.00433333 -0.00383495 -0.00406667 -0.00362745 0.00483696 -0.00478495 -0.00487654 -0.00227273 0.00309524 0.00493865 0.00477778
internal_weight=0 688 567 531 91 476 121 49 441 72 45 432 246 136 67 90 69 115 110 326 121 92 47 76 46 205 45 103 75 51 184 186 162 44 42 163 45
internal_count=1219 688 567 531 91 476 121 49 441 72 45 432 246 136 67 90 69 115 110 326 121 92 47 76 46 205 45 103 75 51 184 186 162 44 42 163 45
is_linear=0
shrinkage=0.01


Tree=14
num_leaves=37
num_cat=0
split_feature=14 14 14 14 110 9 123 127 113 39 14 3 120 2 114 122 3 119 130 103 116 28 123 14 1 14 14 111 114 123 2 10 129 356 14 1
split_gain=135.605 13.2463 6.09678 3.53522 2.38697 1.85676 2.01326 1.46431 1.32258 1.05212 1.02869 0.836286 0.808576 0.998777 0.775254 0.724075 0.556522 0.476456 0.371827 0.424245 0.358187 0.696966 0.302098 0.543478 0.301875 0.255245 0.229216 0.272508 0.214286 0.191304 0.175668 0.147698 0.111035 0.043865 0.0371088 0.0277778
threshold=60.500000000000007 100.50000000000001 3.5000000000000004 53.500000000000007 1.0000000180025095e-35 27.500000000000004 1.0000000180025095e-35 1.0000000180025095e-35 1.0000000180025095e-35 1.0000000180025095e-35 154.50000000000003 16.057782912023196 1.0000000180025095e-35 11.147413246353176 1.0000000180025095e-35 1.0000000180025095e-35 18.500000000000004 1.0000000180025095e-35 1.0000000180025095e-35 1.0000000180025095e-35 1.0000000180025095e-35 1.0000000180025095e-35 1.0000000180025095e-35 328.50000000000006 1.5000000000000002 40.500000000000007 40.500000000000007 1.0000000180025095e-35 1.0000000180025095e-35 1.0000000180025095e-35 11.147413246353176 1.5000000000000002 1.0000000180025095e-35 1.0000000180025095e-35 43.500000000000007 14.500000000000002
decision_type=2 2 2 2 2 2 2 2 2 2 2 2 2 2 2 2 2 2 2 2 2 2 2 2 2 2 2 2 2 2 2 2 2 2 2 2
left_child=2 5 4 7 14 -2 17 12 9 -8 16 -5 13 25 -1 26 20 -7 24 22 29 -22 23 -20 -12 -4 27 -15 -9 -3 -10 -26 34 -33 -14 -21
right_child=1 10 3 11 -6 6 8 28 30 -11 18 -13 32 15 -16 -17 -18 -19 19 35 21 -23 -24 -25 31 -27 -28 -29 -30 -31 -32 33 -34 -35 -36 -37
leaf_value=0.069499665021518164 -0.1220572340256119 0.47224526047206411 -0.32169332564120384 0.00020973285667178488 -0.36487324136297089 0.22113765873807775 -0.10405532388568091 -0.24204969037948515 0.10472122649348294 0.064000263386969389 2.3042273697160685 -0.038208070559692615 -0.38371216594596907 -0.33347317728354597 -0.32143595072452208 -0.19982568139081763 0.56003613220652781 0.10240133934763143 1.0077958253002572 2.5350523372543807 0.51731497978319729 0.45466991959847536 1.3137083204868152 4.4159903004586987 2.0991687668511072 -0.11700400590240861 -0.10820395568400841 -0.33110821404431945 -0.16255927165712378 0.54361429029491437 0.27912371595446062 2.1619118549853282 -0.25884168383069361 2.5770239028206112 -0.097290106028577808 2.9144923422527897
leaf_weight=46 22 22 73 25 24 21 31 21 21 27 21 37 134 35 21 30 23 31 23 25 27 20 30 23 21 26 31 32 21 23 20 143 26 20 23 20
leaf_count=46 22 22 73 25 24 21 31 21 21 27 21 37 134 35 21 30 23 31 23 25 27 20 30 23 21 26 31 32 21 23 20 143 26 20 23 20
internal_value=0 0.00324104 -0.00342975 -0.00385214 -0.00104396 0.000895954 0.00129139 -0.00415929 0.000454545 -0.000517241 0.004161 -0.0016129 -0.00434146 -0.00394273 -7.46269e-05 -0.00335937 0.00334783 0.00288462 0.00444785 0.00400826 0.00369565 0.00308511 0.00355263 0.00304348 0.00470732 -0.00469697 -0.00377551 -0.00410448 -0.00238095 0.00433333 0.00182927 0.00483696 -0.00483607 0.00493865 -0.00493631 0.00477778
internal_weight=0 614 605 514 91 173 151 452 99 58 441 62 410 227 67 128 115 52 326 121 92 47 76 46 205 99 98 67 42 45 41 184 183 163 157 45
internal_count=1219 614 605 514 91 173 151 452 99 58 441 62 410 227 67 128 115 52 326 121 92 47 76 46 205 99 98 67 42 45 41 184 183 163 157 45
is_linear=0
shrinkage=0.01


Tree=15
num_leaves=38
num_cat=0
split_feature=14 14 14 14 110 127 122 130 54 2 14 120 2 122 3 114 110 14 130 103 116 28 123 14 1 14 123 125 116 29 10 111 14 129 114 356 2
split_gain=134.852 10.3572 5.34528 6.89386 2.38697 1.57587 1.54267 1.0646 2.24053 1.55395 0.973512 0.902643 0.929987 1.17502 0.88086 0.775254 0.709044 0.448403 0.398402 0.439411 0.36 0.634516 0.321306 0.480002 0.299467 0.265152 0.18 0.148132 0.307451 0.619861 0.146766 0.130927 0.105337 0.175309 0.0909091 0.0437107 0.0267442
threshold=65.500000000000014 100.50000000000001 3.5000000000000004 57.500000000000007 1.0000000180025095e-35 1.0000000180025095e-35 1.0000000180025095e-35 1.0000000180025095e-35 1.0000000180025095e-35 11.147413246353176 160.50000000000003 1.0000000180025095e-35 11.147413246353176 1.0000000180025095e-35 18.500000000000004 1.0000000180025095e-35 1.0000000180025095e-35 40.500000000000007 1.0000000180025095e-35 1.0000000180025095e-35 1.0000000180025095e-35 1.0000000180025095e-35 1.0000000180025095e-35 328.50000000000006 1.5000000000000002 79.500000000000014 1.0000000180025095e-35 1.0000000180025095e-35 1.0000000180025095e-35 1.0000000180025095e-35 1.5000000000000002 1.0000000180025095e-35 47.500000000000007 1.0000000180025095e-35 1.0000000180025095e-35 1.0000000180025095e-35 9.5000000000000018
decision_type=2 2 2 2 2 2 2 2 2 2 2 2 2 2 2 2 2 2 2 2 2 2 2 2 2 2 2 2 2 2 2 2 2 2 2 2 2
left_child=2 6 4 5 15 11 7 9 25 -2 14 12 17 27 20 -1 31 -4 24 22 26 -22 23 -20 -12 -9 -3 28 -14 -30 -26 -5 33 -13 -7 -32 -21
right_child=1 10 3 16 -6 34 -8 8 -10 -11 18 32 13 -15 -16 -17 -18 -19 19 36 21 -23 -24 -25 30 -27 -28 -29 29 -31 35 -33 -34 -35 -36 -37 -38
leaf_value=0.068804668371303002 0.10503152945734069 0.46196425496840932 -0.31847639238479175 -0.011968761122142197 -0.36122450894934122 -0.21367919347569028 0.16065483641789297 -0.11969315482773027 0.17139951896509181 0.28589022227449656 2.2811850960189077 -0.37987504428650937 -0.31786311435416037 -0.17815242457690947 0.54534340552301075 -0.31822159121727689 0.0059258622913733921 -0.11006527730588453 0.99771786704725463 2.985623737004262 0.54214182998536531 0.48512322040249062 1.3994388971280052 4.3718303974541115 2.0781770791825962 -0.024354017625877092 0.53817814739196523 -0.1360839804147311 -0.17145067436117928 -0.31073780041473109 2.2041391047110763 -0.0026664873541372104 -0.080936321966070757 -0.31625326699238665 -0.12688367894055255 2.551253663792405 2.3572524885942592
leaf_weight=46 31 25 73 22 24 22 31 20 22 22 21 142 24 33 24 21 20 37 21 20 29 21 29 23 21 22 25 28 31 20 139 21 24 20 22 20 23
leaf_count=46 31 25 73 22 24 22 31 20 22 22 21 142 24 33 24 21 20 37 21 20 29 21 29 23 21 22 25 28 31 20 139 21 24 20 22 20 23
internal_value=0 0.00337012 -0.00328571 -0.00366419 -0.00104396 -0.00407563 0.00108108 0.000555556 -0.0003125 0.00160377 0.00413832 -0.00425926 -0.00386179 -0.00330882 0.0033871 -7.46269e-05 -0.000555556 -0.00454545 0.00443218 0.00396552 0.0038 0.0032 0.00349315 0.00295455 0.00470149 -0.00166667 0.0044 -0.00383495 -0.00406667 -0.00362745 0.00483333 -0.00127907 -0.00478495 -0.00487654 -0.00227273 0.00493711 0.00476744
internal_weight=0 589 630 539 91 476 148 117 64 53 441 432 246 136 124 67 63 110 317 116 100 50 73 44 201 42 50 103 75 51 180 43 186 162 44 159 43
internal_count=1219 589 630 539 91 476 148 117 64 53 441 432 246 136 124 67 63 110 317 116 100 50 73 44 201 42 50 103 75 51 180 43 186 162 44 159 43
is_linear=0
shrinkage=0.01


Tree=16
num_leaves=37
num_cat=0
split_feature=14 14 14 14 110 127 14 120 0 122 114 119 14 33 1 14 113 14 3 40 28 116 111 0 45 119 14 116 14 132 127 14 129 114 14 123
split_gain=132.236 11.2902 6.92453 4.81249 2.38697 1.53936 1.05286 0.983887 0.946858 1.10947 0.775254 0.73899 0.566745 0.54688 0.475431 0.8706 0.469458 1.09394 0.458821 1.42024 0.477366 0.930909 0.410516 0.240927 0.239656 0.193939 0.187778 0.157792 0.148052 0.134072 0.280822 0.105337 0.175309 0.0909091 0.0321429 0.0321429
threshold=79.500000000000014 57.500000000000007 3.5000000000000004 100.50000000000001 1.0000000180025095e-35 1.0000000180025095e-35 252.50000000000003 1.0000000180025095e-35 2.2727128046562393 1.0000000180025095e-35 1.0000000180025095e-35 1.0000000180025095e-35 40.500000000000007 1.0000000180025095e-35 3.5000000000000004 87.500000000000014 1.0000000180025095e-35 69.500000000000014 18.500000000000004 1.0000000180025095e-35 1.0000000180025095e-35 1.0000000180025095e-35 1.0000000180025095e-35 2.7727128046562393 1.0000000180025095e-35 1.0000000180025095e-35 65.500000000000014 1.0000000180025095e-35 47.500000000000007 1.0000000180025095e-35 1.0000000180025095e-35 47.500000000000007 1.0000000180025095e-35 1.0000000180025095e-35 30.500000000000004 1.0000000180025095e-35
decision_type=2 2 2 2 2 2 2 2 2 2 2 2 2 2 2 2 2 2 2 2 2 2 2 2 2 2 2 2 2 2 2 2 2 2 2 2
left_child=1 2 4 14 10 7 18 8 28 12 -1 26 22 29 -2 -16 17 -13 20 -20 21 25 34 -22 -14 -5 -3 -17 -4 30 -8 32 -9 -7 -10 -23
right_child=3 11 5 6 -6 33 13 31 9 -11 -12 16 24 -15 15 27 -18 -19 19 -21 23 35 -24 -25 -26 -27 -28 -29 -30 -31 -32 -33 -34 -35 -36 -37
leaf_value=0.068116621687590001 0.075337791022501585 -0.030381064244038001 -0.33497307705397444 0.70001789796792002 -0.35761226385984779 -0.21154240154093337 3.4543135119497199 -0.37607629384364433 -0.34442457956061878 -0.18683799615029226 -0.31503937530510412 0.013032654687034403 -0.096147894760583774 2.8268531664846672 0.16704700070452677 0.30218118638617542 0.091441450237072536 -0.091125700904347295 0.72818600134798073 0.78595934189147032 0.87982842730663335 0.53672041168551166 -0.31349592287396716 0.67532576635897079 -0.074214234564850975 0.47804841354335353 -0.00069163970362453144 0.30997296507976674 -0.13137072283699375 3.5188728101800373 3.1578833797543644 -0.080126958746410043 -0.31309073432246282 -0.12561484215114704 -0.19442457956061879 0.8228391832993216
leaf_weight=46 21 25 57 22 24 22 32 142 36 39 21 33 22 30 27 22 21 22 26 23 39 21 31 35 21 33 20 20 20 115 41 24 20 22 20 24
leaf_count=46 21 25 57 22 24 22 32 142 36 39 21 33 22 30 27 22 21 22 26 23 39 21 31 35 21 33 20 20 20 115 41 24 20 22 20 24
internal_value=0 -0.00297965 -0.00357143 0.0036629 -0.00104396 -0.00405462 0.00409297 -0.00423611 -0.00382114 -0.00340237 -7.46269e-05 -0.000206612 -0.00384615 0.00458716 0.00155556 0.00195652 0.000394737 -9.09091e-05 0.00360987 0.0027551 0.00385057 0.0034 -0.00431034 0.00445946 -0.00290698 0.00427273 -0.00122222 0.00285714 -0.00474026 0.00478723 0.00445205 -0.00478495 -0.00487654 -0.00227273 -0.00482143 0.00233333
internal_weight=0 688 567 531 91 476 441 432 246 169 67 121 130 218 90 69 76 55 223 49 174 100 87 74 43 55 45 42 77 188 73 186 162 44 56 45
internal_count=1219 688 567 531 91 476 441 432 246 169 67 121 130 218 90 69 76 55 223 49 174 100 87 74 43 55 45 42 77 188 73 186 162 44 56 45
is_linear=0
shrinkage=0.01


Tree=17
num_leaves=37
num_cat=0
split_feature=14 14 14 14 110 127 14 120 0 122 28 39 130 119 114 14 33 1 14 3 40 28 116 111 0 45 119 116 14 132 127 14 129 114 14 123
split_gain=131.658 11.8517 6.92453 4.81249 2.38697 1.53936 1.05286 0.983887 0.946858 1.10947 0.820974 1.98215 0.948148 1 0.775254 0.566745 0.54688 0.475431 0.8706 0.458821 1.42024 0.477366 0.930909 0.410516 0.240927 0.239656 0.193939 0.157792 0.148052 0.134072 0.280822 0.105337 0.175309 0.0909091 0.0321429 0.0321429
threshold=79.500000000000014 57.500000000000007 3.5000000000000004 100.50000000000001 1.0000000180025095e-35 1.0000000180025095e-35 252.50000000000003 1.0000000180025095e-35 2.2727128046562393 1.0000000180025095e-35 1.0000000180025095e-35 1.0000000180025095e-35 1.0000000180025095e-35 1.0000000180025095e-35 1.0000000180025095e-35 40.500000000000007 1.0000000180025095e-35 3.5000000000000004 87.500000000000014 18.500000000000004 1.0000000180025095e-35 1.0000000180025095e-35 1.0000000180025095e-35 1.0000000180025095e-35 2.7727128046562393 1.0000000180025095e-35 1.0000000180025095e-35 1.0000000180025095e-35 47.500000000000007 1.0000000180025095e-35 1.0000000180025095e-35 47.500000000000007 1.0000000180025095e-35 1.0000000180025095e-35 30.500000000000004 1.0000000180025095e-35
decision_type=2 2 2 2 2 2 2 2 2 2 2 2 2 2 2 2 2 2 2 2 2 2 2 2 2 2 2 2 2 2 2 2 2 2 2 2
left_child=1 2 4 17 14 7 19 8 28 15 12 -12 -3 -14 -1 23 29 -2 -19 21 -21 22 26 34 -23 -17 -5 -20 -4 30 -8 32 -9 -7 -10 -24
right_child=3 10 5 6 -6 33 16 31 9 -11 11 -13 13 -15 -16 25 -18 18 27 20 -22 24 35 -25 -26 -27 -28 -29 -30 -31 -32 -33 -34 -35 -36 -37
leaf_value=0.06743545547071414 0.074584413112276593 0.082297828432048872 -0.33162334628343476 0.69301771898824072 -0.35403614122124927 -0.20942697752552406 3.4197703768302223 -0.37231553090520786 -0.34098033376501263 -0.18496961618878932 -0.10652420934895396 0.0081408582842390585 -0.15997131786828447 0.025135650293534723 -0.31188898155205308 -0.095186415812977931 2.7985846348198202 0.16537653069748148 0.29915937452231361 0.72090414133450098 0.77809974847255559 0.87103014303356707 0.53135320756865656 -0.31036096364522747 0.6685725086953811 -0.073472092219202492 0.47326792940792006 0.30687323542896905 -0.13005701560862384 3.4836840820782369 3.1263045459568208 -0.079325689158945917 -0.30995982697923813 -0.12435869372963559 -0.19248033376501261 0.81461079146632842
leaf_weight=46 21 27 57 22 24 22 32 142 36 39 23 26 20 25 21 22 30 27 22 26 23 39 21 31 35 21 33 20 20 115 41 24 20 22 20 24
leaf_count=46 21 27 57 22 24 22 32 142 36 39 23 26 20 25 21 22 30 27 22 26 23 39 21 31 35 21 33 20 20 115 41 24 20 22 20 24
internal_value=0 -0.00296512 -0.00357143 0.0036629 -0.00104396 -0.00405462 0.00409297 -0.00423611 -0.00382114 -0.00340237 -0.000123967 -0.00112245 0.000555556 -0.000333333 -7.46269e-05 -0.00384615 0.00458716 0.00155556 0.00195652 0.00360987 0.0027551 0.00385057 0.0034 -0.00431034 0.00445946 -0.00290698 0.00427273 0.00285714 -0.00474026 0.00478723 0.00445205 -0.00478495 -0.00487654 -0.00227273 -0.00482143 0.00233333
internal_weight=0 688 567 531 91 476 441 432 246 169 121 49 72 45 67 130 218 90 69 223 49 174 100 87 74 43 55 42 77 188 73 186 162 44 56 45
internal_count=1219 688 567 531 91 476 441 432 246 169 121 49 72 45 67 130 218 90 69 223 49 174 100 87 74 43 55 42 77 188 73 186 162 44 56 45
is_linear=0
shrinkage=0.01


Tree=18
num_leaves=36
num_cat=0
split_feature=14 14 14 14 10 110 123 113 127 3 14 120 0 111 114 39 33 119 14 3 40 28 116 123 1 0 114 119 132 127 129 2 14 9 123
split_gain=132.295 12.7001 5.92899 3.9322 2.47341 2.38697 2.13343 1.54178 1.4281 1.14274 1.05286 0.890289 0.906758 1.09161 0.775254 0.700027 0.54688 0.546076 0.494743 0.458821 1.42024 0.477366 0.930909 0.319117 0.312554 0.240927 0.214286 0.193939 0.134072 0.280822 0.111035 0.110082 0.0371088 0.0355072 0.0321429
threshold=60.500000000000007 100.50000000000001 3.5000000000000004 53.500000000000007 2.5000000000000004 1.0000000180025095e-35 1.0000000180025095e-35 1.0000000180025095e-35 1.0000000180025095e-35 16.057782912023196 252.50000000000003 1.0000000180025095e-35 2.2727128046562393 1.0000000180025095e-35 1.0000000180025095e-35 1.0000000180025095e-35 1.0000000180025095e-35 1.0000000180025095e-35 40.500000000000007 18.500000000000004 1.0000000180025095e-35 1.0000000180025095e-35 1.0000000180025095e-35 1.0000000180025095e-35 5.2312659148781382 2.7727128046562393 1.0000000180025095e-35 1.0000000180025095e-35 1.0000000180025095e-35 1.0000000180025095e-35 1.0000000180025095e-35 11.147413246353176 43.500000000000007 40.200218818380755 1.0000000180025095e-35
decision_type=2 2 2 2 2 2 2 2 2 2 2 2 2 2 2 2 2 2 2 2 2 2 2 2 2 2 2 2 2 2 2 2 2 2 2
left_child=2 4 5 8 -2 14 17 15 11 -5 19 12 33 18 -1 -8 28 -6 31 21 -21 22 27 -15 -9 -23 -10 -3 29 -12 32 -14 -13 -4 -24
right_child=1 10 3 9 6 -7 7 24 26 -11 16 30 13 23 -16 -17 -18 -19 -20 20 -22 25 34 -25 -26 -27 -28 -29 -30 -31 -32 -33 -34 -35 -36
leaf_value=0.066761100916006982 -0.12338619902127697 0.68608754179835829 -0.29543440301171731 0.00018005776595693136 0.21581403142772179 -0.35049577980903679 -0.090465800398239149 0.067383633642539562 -0.2332827077502688 -0.035063115060747524 3.3855726730619198 -0.36859237559615582 -0.30644855426836443 -0.2089153048730942 -0.30877009173653258 0.066407861208401364 2.7705987884716219 0.11391508537903863 -0.091754222227485083 0.71369509992115598 0.77031875098783009 0.86231984160323139 0.52603967549296993 -0.17279830483340561 0.26746017096308605 0.66188678360842734 -0.15716510679233928 0.46853525011384078 3.4488472412574538 3.0950415004972527 -0.24686022870944577 -0.31502156396183512 -0.085415419280159666 -0.29008127535337291 0.80646468355166523
leaf_weight=46 24 22 20 25 23 24 30 20 21 37 32 134 33 23 21 23 30 31 24 26 23 39 21 40 22 35 21 33 115 41 26 38 23 49 24
leaf_count=46 24 22 20 25 23 24 30 20 21 37 32 134 33 23 21 23 30 31 24 26 23 39 21 40 22 35 21 33 115 41 26 38 23 49 24
internal_value=0 0.00319218 -0.00339669 -0.00381323 0.000895954 -0.00104396 0.00137584 0.000473684 -0.00413717 -0.00145161 0.00409297 -0.00431707 -0.00389868 -0.00348101 -7.46269e-05 -0.000660377 0.00458716 0.00296296 -0.00415789 0.00360987 0.0027551 0.00385057 0.0034 -0.00246032 0.00190476 0.00445946 -0.00238095 0.00427273 0.00478723 0.00445205 -0.00483607 -0.00457746 -0.00493631 -0.00485507 0.00233333
internal_weight=0 614 605 514 173 91 149 95 452 62 441 410 227 158 67 53 218 54 95 223 49 174 100 63 42 74 42 55 188 73 183 71 157 69 45
internal_count=1219 614 605 514 173 91 149 95 452 62 441 410 227 158 67 53 218 54 95 223 49 174 100 63 42 74 42 55 188 73 183 71 157 69 45
is_linear=0
shrinkage=0.01


Tree=19
num_leaves=35
num_cat=0
split_feature=14 14 14 14 110 120 127 14 0 122 54 28 114 14 33 14 111 1 14 3 40 28 116 0 14 0 119 130 116 14 132 127 123 14
split_gain=131.658 11.1722 6.82823 4.81249 2.38697 1.59277 1.50143 1.05286 1.03246 1.02249 0.974077 1.43405 0.775254 0.641203 0.54688 0.529321 0.495495 0.475431 0.8706 0.458821 1.42024 0.477366 0.930909 0.454569 0.300682 0.240927 0.193939 0.175549 0.157792 0.148052 0.134072 0.280822 0.0321429 0.025
threshold=79.500000000000014 57.500000000000007 3.5000000000000004 100.50000000000001 1.0000000180025095e-35 1.0000000180025095e-35 1.0000000180025095e-35 252.50000000000003 2.2727128046562393 1.0000000180025095e-35 1.0000000180025095e-35 1.0000000180025095e-35 1.0000000180025095e-35 60.500000000000007 1.0000000180025095e-35 35.500000000000007 1.0000000180025095e-35 3.5000000000000004 87.500000000000014 18.500000000000004 1.0000000180025095e-35 1.0000000180025095e-35 1.0000000180025095e-35 3.5000000000000004 49.500000000000007 2.7727128046562393 1.0000000180025095e-35 1.0000000180025095e-35 1.0000000180025095e-35 47.500000000000007 1.0000000180025095e-35 1.0000000180025095e-35 1.0000000180025095e-35 26.500000000000004
decision_type=2 2 2 2 2 2 2 2 2 2 2 2 2 2 2 2 2 2 2 2 2 2 2 2 2 2 2 2 2 2 2 2 2 2
left_child=1 2 4 17 12 6 8 19 29 15 11 13 -1 -3 30 16 -10 -2 -19 21 -21 22 26 -17 27 -23 -5 33 -20 -4 31 -9 -24 -7
right_child=3 10 5 7 -6 24 -8 14 9 -11 -12 -13 -14 -15 -16 23 -18 18 28 20 -22 25 32 -25 -26 -27 -28 -29 -30 -31 -32 -33 -34 -35
leaf_value=0.066093489906846936 0.072422580655802524 -0.0011046430331007428 -0.32540630006706667 0.67922666638037466 -0.34699082201094639 -0.38499988067276614 -0.089221668198590967 3.351716946331301 -0.31468021843774419 -0.18190002792723223 0.007395371089312661 -0.11020395681200774 -0.3056823908191672 0.015441021362382479 2.7428928005869055 -0.1283174908186962 -0.2962907788464117 0.16326062622847448 0.2934931790674597 0.70655814892194446 0.76261556347795179 0.85369664318719896 0.52077927873804031 -0.071414608661705972 -0.063660866899485344 0.65526791577234311 0.46384989761270234 -0.36490645184019421 0.30164636276040219 -0.12875824603019723 3.4143587688448793 3.0640910854922798 0.79840003671614856 -0.18439162642235132
leaf_weight=46 21 26 57 22 24 20 27 32 44 39 28 26 21 41 30 33 30 27 22 26 23 39 21 23 21 35 33 142 20 20 115 41 24 20
leaf_count=46 21 26 57 22 24 20 27 32 44 39 28 26 21 41 30 33 30 27 22 26 23 39 21 23 21 35 33 142 20 20 115 41 24 20
internal_value=0 -0.00296512 -0.00355379 0.0036629 -0.00104396 -0.00403361 -0.0035348 0.00409297 -0.00378049 -0.0033432 -0.000206612 -0.000698925 -7.46269e-05 7.46269e-05 0.00458716 -0.00376923 -0.00432432 0.00155556 0.00195652 0.00360987 0.0027551 0.00385057 0.0034 -0.00303571 -0.00470443 0.00445946 0.00427273 -0.00483516 0.00285714 -0.00474026 0.00478723 0.00445205 0.00233333 -0.00425
internal_weight=0 688 567 531 91 476 273 441 246 169 121 93 67 67 218 130 74 90 69 223 49 174 100 56 203 74 55 182 42 77 188 73 45 40
internal_count=1219 688 567 531 91 476 273 441 246 169 121 93 67 67 218 130 74 90 69 223 49 174 100 56 203 74 55 182 42 77 188 73 45 40
is_linear=0
shrinkage=0.01


Tree=20
num_leaves=37
num_cat=0
split_feature=14 14 14 14 110 9 123 120 0 113 127 3 39 14 111 33 114 14 45 119 3 40 28 116 123 0 130 119 2 132 127 0 14 14 3 123
split_gain=130.321 12.5206 5.76355 3.80369 2.38697 1.85676 2.01326 1.54883 1.71442 1.32258 1.29205 1.14274 1.05212 0.956341 0.837643 0.826391 0.775254 0.54665 0.753463 0.476456 0.458821 1.42024 0.477366 0.930909 0.319117 0.240927 0.22932 0.193939 0.175668 0.134072 0.280822 0.0845283 0.0726285 0.0369848 0.0363014 0.0321429
threshold=60.500000000000007 100.50000000000001 3.5000000000000004 53.500000000000007 1.0000000180025095e-35 27.500000000000004 1.0000000180025095e-35 1.0000000180025095e-35 2.2727128046562393 1.0000000180025095e-35 1.0000000180025095e-35 16.057782912023196 1.0000000180025095e-35 252.50000000000003 1.0000000180025095e-35 1.0000000180025095e-35 1.0000000180025095e-35 34.500000000000007 1.0000000180025095e-35 1.0000000180025095e-35 18.500000000000004 1.0000000180025095e-35 1.0000000180025095e-35 1.0000000180025095e-35 1.0000000180025095e-35 2.7727128046562393 1.0000000180025095e-35 1.0000000180025095e-35 11.147413246353176 1.0000000180025095e-35 1.0000000180025095e-35 2.7727128046562393 29.500000000000004 43.500000000000007 8.5000000000000018 1.0000000180025095e-35
decision_type=2 2 2 2 2 2 2 2 2 2 2 2 2 2 2 2 2 2 2 2 2 2 2 2 2 2 2 2 2 2 2 2 2 2 2 2
left_child=2 5 4 7 16 -2 19 8 34 12 14 -5 -8 20 17 29 -1 31 -19 -7 22 -22 23 27 -16 -24 32 -3 -11 30 -15 -10 -9 -28 -4 -25
right_child=1 13 3 11 -6 6 9 26 10 28 -12 -13 -14 15 24 -17 -18 18 -20 -21 21 -23 25 35 -26 -27 33 -29 -30 -31 -32 -33 -34 -35 -36 -37
leaf_value=0.065432555007778462 -0.12287656283762224 0.67243439971657093 -0.27048587604225993 0.00010430347740424395 -0.34352091379083699 0.21296643174530094 -0.099408734925884132 -0.37054162761562365 -0.33941085778488173 0.10111111730202922 -0.056007663990780186 -0.034063169464823594 0.062823114131633842 3.3181997768679881 -0.20443519779049502 2.7154638725810365 -0.30262556691097559 -0.16064662705979629 -0.070241281706202377 0.097938470382270465 0.69949256743272503 0.75498940784317226 0.84515967675532699 0.51557148595065982 -0.16978714687688459 0.64871523661461961 -0.3612573873217923 0.45921139863657529 0.26185063746278059 3.3802151811564305 3.0334501746373572 -0.30504586490703622 -0.12306253557597067 -0.08091220056895615 -0.29551511592977514 0.79041603634898705
leaf_weight=46 22 22 20 25 24 21 31 22 25 21 21 37 27 32 23 30 21 20 22 31 26 23 39 21 40 35 131 33 20 115 41 28 24 23 53 24
leaf_count=46 22 22 20 25 24 21 31 22 25 21 21 37 27 32 23 30 21 20 22 31 26 23 39 21 40 35 131 33 20 115 41 28 24 23 53 24
internal_value=0 0.0031759 -0.00336364 -0.00377432 -0.00104396 0.000895954 0.00129139 -0.00409292 -0.00357143 0.000454545 -0.00304469 -0.00145161 -0.000517241 0.00407029 -0.00335443 0.00454128 -7.46269e-05 -0.00394737 -0.00309524 0.00288462 0.00360987 0.0027551 0.00385057 0.0034 -0.00246032 0.00445946 -0.00475 0.00427273 0.00182927 0.00478723 0.00445205 -0.00462264 -0.00413043 -0.00493506 -0.00486301 0.00233333
internal_weight=0 614 605 514 91 173 151 452 252 99 179 62 58 441 158 218 67 95 42 52 223 49 174 100 63 74 200 55 41 188 73 53 46 154 73 45
internal_count=1219 614 605 514 91 173 151 452 252 99 179 62 58 441 158 218 67 95 42 52 223 49 174 100 63 74 200 55 41 188 73 53 46 154 73 45
is_linear=0
shrinkage=0.01


Tree=21
num_leaves=37
num_cat=0
split_feature=14 14 14 14 110 120 0 14 127 54 28 122 114 14 25 33 111 130 1 14 3 3 7 31 116 14 14 14 130 122 116 123 132 127 126 14
split_gain=127.711 11.4907 6.63765 4.5579 2.38697 1.79854 1.61157 1.04507 1.04391 0.878102 1.06308 0.859172 0.775254 0.724212 0.976619 0.616364 0.509956 0.494862 0.475431 0.8706 0.412447 0.513413 0.698042 0.482944 0.908963 0.351505 0.318815 0.300682 0.175549 0.175 0.157792 0.14518 0.137143 0.304762 0.0256098 0.025
threshold=79.500000000000014 57.500000000000007 3.5000000000000004 100.50000000000001 1.0000000180025095e-35 1.0000000180025095e-35 2.2727128046562393 290.50000000000006 1.0000000180025095e-35 1.0000000180025095e-35 1.0000000180025095e-35 1.0000000180025095e-35 1.0000000180025095e-35 34.500000000000007 1.0000000180025095e-35 1.0000000180025095e-35 1.0000000180025095e-35 1.0000000180025095e-35 3.5000000000000004 87.500000000000014 3.5000000000000004 7.5000000000000009 3.5000000000000004 1.0000000180025095e-35 1.0000000180025095e-35 154.50000000000003 47.500000000000007 49.500000000000007 1.0000000180025095e-35 1.0000000180025095e-35 1.0000000180025095e-35 1.0000000180025095e-35 1.0000000180025095e-35 1.0000000180025095e-35 1.0000000180025095e-35 26.500000000000004
decision_type=2 2 2 2 2 2 2 2 2 2 2 2 2 2 2 2 2 2 2 2 2 2 2 2 2 2 2 2 2 2 2 2 2 2 2 2
left_child=1 2 4 18 12 6 26 20 11 10 17 13 -1 16 -15 32 -8 -3 -2 -20 -5 -22 -23 24 25 -24 -4 28 35 -26 -21 -19 33 -9 -27 -7
right_child=3 9 5 7 -6 27 8 15 -10 -11 -12 -13 -14 14 -16 -17 -18 31 19 30 21 22 23 -25 29 34 -28 -29 -30 -31 -32 -33 -34 -35 -36 -37
leaf_value=0.064778229457700648 0.070127967104007816 0.058828377561403612 -0.32930709500373967 0.87617050156653331 -0.34008570465292859 -0.37744446558988226 -0.31713909438854787 3.6097292699638017 -0.055447587350872352 0.0066931862371032479 -0.10810782989462879 -0.17888853581168332 -0.29959931124186584 -0.1094127933343783 -0.069182557094969829 2.8810905832896574 -0.28690603287230915 0.0033279126442288744 0.16117757062165139 0.28954713610376476 0.88254774139972303 0.36582417125624195 0.5100029253184013 0.75464997001977907 0.76905231034772725 1.0053411621292205 -0.10042814378291101 -0.062004384549765916 -0.35764481344857435 0.51041577109115321 0.29650023481534521 -0.10193336191136908 3.7150311452790801 3.0281156728909839 0.81385362891186719 -0.18131708480236811
leaf_weight=46 21 26 61 22 24 20 42 30 22 28 26 39 21 39 20 27 29 20 27 22 27 27 38 39 24 21 21 21 142 21 20 21 105 40 20 20
leaf_count=46 21 26 61 22 24 20 42 30 22 28 26 39 21 39 20 27 29 20 27 22 27 27 38 39 24 21 21 21 142 21 20 21 105 40 20 20
internal_value=0 -0.00292151 -0.00351852 0.0036064 -0.00104396 -0.0039916 -0.00346154 0.00402494 -0.00295812 -0.000123967 -0.000591398 -0.00322485 -7.46269e-05 -0.00361538 -0.00279661 0.00455446 -0.00429577 7.46269e-05 0.00155556 0.00195652 0.00357741 0.00370968 0.00352632 0.00377301 0.00346774 0.00411392 -0.00463415 -0.00470443 -0.00483516 0.00233333 0.00285714 -0.000609756 0.00477143 0.00442857 0.0047561 -0.00425
internal_weight=0 688 567 531 91 476 273 441 191 121 93 169 67 130 59 202 71 67 90 69 239 217 190 163 124 79 82 203 182 45 42 41 175 70 41 40
internal_count=1219 688 567 531 91 476 273 441 191 121 93 169 67 130 59 202 71 67 90 69 239 217 190 163 124 79 82 203 182 45 42 41 175 70 41 40
is_linear=0
shrinkage=0.01


Tree=22
num_leaves=39
num_cat=0
split_feature=14 14 14 14 10 110 123 120 0 113 127 14 3 114 111 14 39 7 119 45 17 31 0 116 127 4 130 14 103 123 1 130 14 0 0 14 14 3
split_gain=128.381 11.9897 5.76355 3.29377 2.47341 2.38697 2.13343 1.65488 1.82138 1.54178 1.23084 0.95696 0.836286 0.775254 0.723252 0.730359 0.700027 0.619102 0.546076 0.498701 0.441082 0.499552 1.07786 0.42684 0.405518 0.4 0.383754 0.366596 0.362803 0.319117 0.312554 0.22932 0.128342 0.116667 0.0845283 0.0726285 0.0369848 0.0363014
threshold=60.500000000000007 100.50000000000001 3.5000000000000004 53.500000000000007 2.5000000000000004 1.0000000180025095e-35 1.0000000180025095e-35 1.0000000180025095e-35 2.2727128046562393 1.0000000180025095e-35 1.0000000180025095e-35 373.00000000000006 16.057782912023196 1.0000000180025095e-35 1.0000000180025095e-35 34.500000000000007 1.0000000180025095e-35 3.5000000000000004 1.0000000180025095e-35 1.0000000180025095e-35 1.0000000180025095e-35 1.0000000180025095e-35 2.7727128046562393 1.0000000180025095e-35 1.0000000180025095e-35 5.5000000000000009 1.0000000180025095e-35 220.50000000000003 1.0000000180025095e-35 1.0000000180025095e-35 5.2312659148781382 1.0000000180025095e-35 150.50000000000003 2.7727128046562393 2.7727128046562393 29.500000000000004 43.500000000000007 8.5000000000000018
decision_type=2 2 2 2 2 2 2 2 2 2 2 2 2 2 2 2 2 2 2 2 2 2 2 2 2 2 2 2 2 2 2 2 2 2 2 2 2 2
left_child=2 4 5 7 -2 13 18 8 37 16 14 17 -5 -1 15 34 -8 25 -6 -17 21 22 23 27 -25 -3 -13 32 -28 -16 -11 35 -19 -23 -10 -9 -33 -4
right_child=1 11 3 12 6 -7 9 31 10 30 -12 26 -14 -15 29 19 -18 20 -20 -21 -22 33 -24 24 -26 -27 28 -29 -30 -31 -32 36 -34 -35 -36 -37 -38 -39
leaf_value=0.064130447163123633 -0.12234907688028607 0.63894885804376755 -0.26448794633179995 3.6328580259166192e-05 0.20968023973921962 -0.33668484760639927 -0.087702131639508005 -0.36306176668356865 -0.33284535826314737 0.063950405358222259 -0.054893111477363664 4.4678345161620738 -0.033514538939067827 -0.29660331812944718 -0.20006187296917013 -0.15794603285585454 0.064974665881736907 0.49560099025863452 0.11163226236476043 -0.067749983531023544 1.0105041773158567 1.0143493979262856 0.52448378298449116 0.47646928127080346 1.0187498429466078 0.49771190162848855 3.78280479015072 1.0845752390642307 3.7858810891722579 -0.16699514747477195 0.25633665972711511 -0.35406836531408864 0.87243904168194408 0.75957913425139179 -0.29882401531408037 -0.12001873937218734 -0.076526630428780898 -0.28926689382043996
leaf_weight=46 24 20 20 25 23 24 30 22 25 20 21 100 37 21 23 20 23 34 31 22 29 20 22 29 28 20 37 20 22 40 22 131 32 28 28 24 23 53
leaf_count=46 24 20 20 25 23 24 30 22 25 20 21 100 37 21 23 20 23 34 31 22 29 20 22 29 28 20 37 20 22 40 22 131 32 28 28 24 23 53
internal_value=0 0.00312704 -0.00336364 -0.00377432 0.000895954 -0.00104396 0.00137584 -0.0040708 -0.00353175 0.000473684 -0.00298883 0.00400227 -0.0016129 -7.46269e-05 -0.00329114 -0.00384211 -0.000660377 0.00365248 0.00296296 -0.00285714 0.00384298 0.00368545 0.00342424 0.00374126 0.00307018 0.0025 0.00462264 0.00418605 0.00398305 -0.00246032 0.00190476 -0.00475 0.00454545 0.00458333 -0.00462264 -0.00413043 -0.00493506 -0.00486301
internal_weight=0 614 605 514 173 91 149 452 252 95 179 441 62 67 158 95 53 282 54 42 242 213 165 143 57 40 159 86 59 63 42 200 66 48 53 46 154 73
internal_count=1219 614 605 514 173 91 149 452 252 95 179 441 62 67 158 95 53 282 54 42 242 213 165 143 57 40 159 86 59 63 42 200 66 48 53 46 154 73
is_linear=0
shrinkage=0.01


Tree=23
num_leaves=40
num_cat=0
split_feature=14 14 14 14 110 9 123 120 0 113 127 39 14 33 114 3 111 14 45 119 3 3 7 14 31 120 114 122 123 130 130 2 23 14 118 9 14 3 4
split_gain=125.16 11.4703 5.60045 3.67732 2.38697 1.85676 2.01326 1.76445 1.93158 1.32258 1.17112 1.05212 1.01253 0.877181 0.775254 0.656251 0.617256 0.582593 0.498701 0.476456 0.361235 0.589377 0.602853 0.681461 0.604568 0.582082 0.782609 0.33066 0.319117 0.22932 0.178933 0.175668 0.148179 0.0726285 0.0519149 0.0419355 0.0369848 0.0363014 0.0303922
threshold=60.500000000000007 100.50000000000001 3.5000000000000004 53.500000000000007 1.0000000180025095e-35 27.500000000000004 1.0000000180025095e-35 1.0000000180025095e-35 2.2727128046562393 1.0000000180025095e-35 1.0000000180025095e-35 1.0000000180025095e-35 290.50000000000006 1.0000000180025095e-35 1.0000000180025095e-35 16.057782912023196 1.0000000180025095e-35 34.500000000000007 1.0000000180025095e-35 1.0000000180025095e-35 3.5000000000000004 7.5000000000000009 3.5000000000000004 154.50000000000003 1.0000000180025095e-35 1.0000000180025095e-35 1.0000000180025095e-35 1.0000000180025095e-35 1.0000000180025095e-35 1.0000000180025095e-35 1.0000000180025095e-35 11.147413246353176 1.0000000180025095e-35 29.500000000000004 1.0000000180025095e-35 38.000000000000007 43.500000000000007 8.5000000000000018 1.5000000000000002
decision_type=2 2 2 2 2 2 2 2 2 2 2 2 2 2 2 2 2 2 2 2 2 2 2 2 2 2 2 2 2 2 2 2 2 2 2 2 2 2 2
left_child=2 5 4 7 14 -2 19 8 37 11 16 -8 20 30 -1 -5 17 34 -19 -7 -3 -22 -23 24 25 26 -24 38 -18 33 35 -11 -32 -9 -10 -14 -31 -4 -25
right_child=1 12 3 15 -6 6 9 29 10 31 -12 -13 13 -15 -16 -17 28 18 -20 -21 21 22 23 27 -26 -27 -28 -29 -30 36 32 -33 -34 -35 -36 -37 -38 -39 -40
leaf_value=0.063489142691492403 -0.12112558611148323 0.85981300520835402 -0.26184306686848197 3.5965294456588024e-05 -0.33331799913033527 0.20758343734182746 -0.096314185574996283 -0.3594311490167329 -0.32137955949900088 0.098688470117535301 -0.05434418036259004 0.063153025055485229 2.5243625229216371 2.8282785250212679 -0.29363728494815272 -0.033179393549677166 -0.1980612542394784 -0.15636657252729599 -0.067072483695713322 0.095531981603772034 0.86499787356890634 0.35648262574531836 0.37336060469115878 0.92777125570021579 0.42064868160641844 0.53853928391337436 0.56575100734189177 0.90959361671026684 -0.16532519600002424 -0.35052768166094772 3.5162472414901544 0.25377329312984404 3.7480222782805357 -0.11881855197846548 -0.29544630845035624 3.2807278074957611 -0.07576136412449308 -0.28637422488223557 1.0819833429088779
leaf_weight=46 22 22 20 25 24 21 31 22 32 21 21 27 20 27 21 37 23 20 22 31 27 27 23 31 21 20 23 25 40 131 21 20 30 24 21 104 23 53 20
leaf_count=46 22 22 20 25 24 21 31 22 32 21 21 27 20 27 21 37 23 20 22 31 27 27 23 31 21 20 23 25 40 131 21 20 30 24 21 104 23 53 20
internal_value=0 0.00307818 -0.00333058 -0.00373541 -0.00104396 0.000895954 0.00129139 -0.00404867 -0.00349206 0.000454545 -0.00293296 -0.000517241 0.00393424 0.00445545 -7.46269e-05 -0.00145161 -0.00322785 -0.00373684 -0.00285714 0.00288462 0.00349372 0.00361751 0.00342105 0.00365031 0.00304598 0.00257576 0.00195652 0.00434211 -0.00246032 -0.00475 0.00471429 0.00182927 0.00421569 -0.00413043 -0.00443396 0.00491935 -0.00493506 -0.00486301 0.00480392
internal_weight=0 614 605 514 91 173 151 452 252 99 179 58 441 202 67 62 158 95 42 52 239 217 190 163 87 66 46 76 63 200 175 41 51 46 53 124 154 73 51
internal_count=1219 614 605 514 91 173 151 452 252 99 179 58 441 202 67 62 158 95 42 52 239 217 190 163 87 66 46 76 63 200 175 41 51 46 53 124 154 73 51
is_linear=0
shrinkage=0.01


Tree=24
num_leaves=39
num_cat=0
split_feature=14 14 14 14 110 10 122 120 0 130 54 14 127 33 20 40 110 114 2 5 114 3 3 7 14 31 120 114 122 14 14 14 130 130 23 9 4 14
split_gain=124.945 9.45294 4.9735 6.48856 2.38697 2.10004 2.29114 1.90612 1.71383 1.51193 1.57809 1.01253 0.991245 0.877181 0.858808 0.927948 0.794683 0.775254 0.754658 0.641871 0.528481 0.361235 0.589377 0.602853 0.681461 0.604568 0.582082 0.782609 0.33066 0.318815 0.300682 0.248231 0.178933 0.175549 0.148179 0.0419355 0.0303922 0.025
